Factor1,Factor2,Factor3,Factor4,Factor5,Factor6,Factor7,Factor8,Factor9,Factor10
0.0003970315410486528,-0.00021401651853237308,-0.009709527836558268,0.00014268982312787184,0.0002172366959113985,3.8158705644336836e-05,7.702408593942397e-05,9.17544202159187e-06,-0.0002287468914646242,2.066998211208033e-05
0.22765789387163315,-0.00011712017387661734,-0.08193026334722198,2.5204137647997006e-05,1.3946201239756045e-05,0.7166663124370004,-3.4537611076102647e-06,1.7292876824740974e-05,0.19297070165868535,0.11248395320954768
-0.0508148227438808,-0.0007679442884389329,-0.15730468871473785,0.04314948168407092,-0.0008833364836771689,0.15740536598797836,0.05603274480155175,0.0003791382416692373,-0.04194116624109768,-0.0035612642918498513
-0.1345315363150226,0.03305095776179483,-0.10749473419324429,0.16607243972681546,-2.974647067071576e-06,2.4908694483748347e-05,-3.814748110286313e-05,3.949779311570694e-05,8.648104146922793e-05,9.440301899127652e-06
-0.1458937037831537,0.0014472290981454928,-0.09376468835802525,-0.11818843847285807,8.045943115710255e-06,4.0815040387443045e-05,-0.00010616034884729723,0.0007422078616183331,-0.0022330844388331445,-1.9784063125607544e-05
-0.04708235765112192,-3.111596187159348e-05,-0.02534701911182532,-0.0007715727369555197,5.534589548611309e-06,-3.970903205065252e-06,1.203948907745778e-05,8.551892862241383e-05,-0.01390456786368922,0.0025022468245219994
-0.07467308587773787,-0.002852783591667675,-0.03517288296628347,-0.05967189218963997,-7.483331561763671e-05,-2.2212834245262945e-05,-0.00047581292801260344,3.978725656913815e-05,6.17830772251854e-05,-5.962875534889706e-05
-0.10724435457993714,0.06471822490515641,-0.15771670522336748,0.35057992613305716,0.12599944496111362,-1.0081872374301904e-05,-0.05172454283650443,-1.3597065590078701e-05,0.00014173944058718888,1.5856035616998224e-05
-0.039104187570278164,-0.014522964200318754,-0.0002934370058500663,-3.1893853479441276e-05,0.02230380953906712,-5.193525982009084e-05,0.00011290367645617212,2.6968112671047473e-05,-4.469706934296321e-05,-2.725603817114381e-07
-0.07036359601629955,-0.0001851527052771153,-0.014234302956635905,0.003408824428553119,7.446981141685495e-06,-0.00013831149142598087,0.03625242783313999,1.5850110898895226e-05,-3.2782784169394606e-05,0.002622577753323597
-0.0868725112226021,0.0019048842103043574,-0.0553251725363165,0.07827411744845099,-2.152194944621832e-05,-2.4138496717367414e-05,6.856069994376146e-05,1.2663853289712817e-05,1.1936814010905523e-05,-3.646210838280342e-05
-0.05601062762268922,-4.374150143564653e-05,-0.0007981385060581541,0.07585809120892074,-6.562817152325751e-05,0.00011197935959783948,0.06823208141345402,-4.656046438002023e-05,-0.0004328278417119259,0.00015903116467212908
-0.01649518072093622,-0.008647586590500056,0.0013595834566817741,-0.048678075959614,-0.0002878762428810622,-0.0025372774256583685,2.1948399998365092e-05,2.131561999014184e-05,0.003655852507797075,-0.00025872258453754285
8.473099932832826e-05,0.06667734244092732,0.05589112963569202,-0.00019657993198076885,-0.0003843612122302382,-6.540424623872478e-05,-0.000778813869244227,0.14887888370061175,0.008991812147019006,2.665386673658169e-06
-0.2634402121201935,0.030472872604280676,-0.17365326265276465,-0.21080741007599252,-1.3425058884999763e-06,3.472414837594786e-05,0.12361487442770508,0.00047793751252040014,1.671076003182847e-05,-0.00016853568633033082
-0.000712332146613656,-2.8178789869708838e-05,-0.00040233346060747143,3.568989702067997e-05,1.1997768984102668e-05,1.232885384409844e-05,-5.256674394498499e-05,2.2581012929359185e-05,-2.994673832026524e-06,6.201863888905768e-07
0.0034618168913662676,-6.69672265008894e-05,-0.04690321096114566,0.00018119230559260997,1.8477498141358545e-05,0.048840344056573344,0.06105827274403596,3.710433449448294e-05,-1.0814351528118104e-05,-4.0161650397522546e-05
-0.017783392532787705,0.044246203382832285,2.3427114785903053e-05,-0.002698860750425612,-6.179560883698911e-06,-3.448231442914611e-06,-1.6297010699026426e-05,0.10160878150063521,-0.004735940255056207,1.7587357940092835e-05
0.5038471181316342,-0.048238703747264425,-0.09267599268600853,-2.26152109328531e-05,-0.05070446895781204,-0.24760259114533129,8.982958457537803e-06,-2.23727150963427e-05,0.1534343080138197,0.12468244417179149
0.4962998793825191,0.0027274343789604116,-0.0575091432788311,9.292059013974627e-05,0.00032196600357947697,-0.22866198581470215,-5.4871278772640806e-05,0.0006423149386365675,0.05525110078640122,0.060641174841820224
-0.03642508580338467,-0.0006790409954906,-0.00013722011687465548,0.06811147618765567,7.60101340170586e-05,3.1707719798774295e-05,-6.59879230881372e-05,2.631627306028331e-05,-7.768352602715073e-05,0.00011982907174649674
0.0012214323141074384,-0.0416128556225736,0.00014771791493140834,0.001278846115599017,8.414164133168109e-05,4.5250465662195255e-05,5.639147474639986e-06,7.131203417634605e-05,-0.0003664727502763611,-0.00011297409624512508
4.3247430288147724e-05,-2.0423933507873186e-05,-0.006392225926929979,0.018122075112424134,-1.0536740640190659e-05,-3.838922348131673e-05,1.5886903762650526e-05,1.5869128082214055e-05,-3.6238699202139025e-05,1.5612119868740458e-05
0.04293756990825078,0.03893596987321182,0.005255877584597996,-1.0451897604634663e-05,-4.569267706117431e-05,3.1523718336014474e-05,2.477423155981187e-05,0.0003144225132727578,-4.686926091232098e-06,-3.74837057083435e-06
0.09656474418568628,0.060540408521718214,-1.1764248251018876e-05,0.006736416556029283,-1.299833138156273e-05,-6.627299311485894e-06,8.046101374115645e-05,0.0028814699800161193,-1.386671013043727e-05,0.00013590466193490915
0.5198902809897817,-0.05059371919356399,-0.18789585922226223,0.021665369457104674,-1.5692639912022807e-05,0.23833351111756138,0.04102287898290711,0.0002052309189469398,-0.01027727970335039,-0.00012161861390443898
-0.15911356959194406,0.17099886105628015,-0.1157536146359035,0.1298810901999673,-3.713019155652949e-06,7.973028479956749e-06,-0.08803723215181407,0.11202899725481046,-2.8073733056091778e-05,-0.0014832039518680989
0.12386284182072807,-0.0005342626249135556,-0.026540353061492543,3.069831778405273e-06,-1.6926679594989364e-05,0.06732312445645536,-1.3196824367499555e-05,-1.1000465750654655e-05,-0.09480697408387595,-0.09104296200768648
0.36515634571108796,0.02998129573194195,-0.3606082325102721,0.5158130608312631,-1.4270218737673843e-05,0.04522727108597516,0.047416583872239806,1.5033793968863828e-05,-0.03442839846304335,-0.0336374438555106
0.034510103938141294,0.07085973638066208,0.02608556096768707,0.027627951920469667,6.334183225703876e-05,-3.769985754037206e-06,-1.5925715681692404e-05,0.0379899904743242,0.0001835899965790944,9.1505509749855e-06
-0.08874783597001416,-0.000510210814227601,-0.00036324959766115516,-0.06049543214404072,-4.003369919689898e-06,5.4384549814068805e-06,-0.01568585798338201,3.833308764960702e-05,-0.0007202638694545208,6.777895472052852e-05
0.2921824100011285,0.04894786719705001,-0.0005294414544074578,-0.0002398165605263438,-0.00012237943666524228,-0.29238747993160247,-0.00047343130629834684,-1.0531080856149556e-05,0.17226096093379176,0.15220479776458276
0.2626740699699052,-0.02411251165145767,-0.04535358879315729,1.086061100110733e-05,-0.0006934183166148558,-0.023278665713084835,1.9037501368411194e-06,4.690819587387804e-05,-0.06230063113738526,-0.05691782250370799
-0.06491111517030507,0.00047195200243538505,-0.06593090520592555,-1.5981649637264256e-05,0.0001700030418743992,-4.026366579661119e-05,0.005570187163734284,0.00011040499607137432,-0.0001005881109130996,1.0342980853655503e-05
-0.06691847533632721,0.0013155765491861214,-0.05625601210712371,-5.516705997989016e-06,-1.491651222559549e-06,-3.169197524826173e-05,0.14570421719698995,-3.384608867390585e-05,2.7121109201223256e-05,1.7267722354465386e-05
0.5493253512089418,-0.05419997282612781,-0.10795996602196192,-1.2543326701706954e-05,-0.04536198536068471,-0.12653946878431405,8.063210631481909e-06,8.653867769725751e-05,0.14597238816183025,0.1117039225273876
0.15489942511659252,0.004431497886672682,0.04958506140823119,0.1249822113392236,0.0035868067421161044,-0.11629447486349473,-1.6031455971622638e-05,0.0004327636871682726,-6.63996839135341e-05,-2.2095081796467766e-05
0.09722818483742925,2.763704278015128e-05,-0.034429276208858085,-2.564606542149992e-05,-4.201234136673391e-06,0.3392907579939011,2.6994246134589963e-06,0.020793566976027935,0.046406085067349535,0.0006996942316287853
0.03598771324018074,-1.5756737968566545e-05,-0.009253341605261348,-5.7383557490951944e-05,2.4524943109035797e-06,0.13292581291059358,-2.2966384650744955e-06,5.1392893766483974e-06,0.013163524422369373,4.115065058260182e-05
-0.047852156552304556,-0.003821937586343425,0.008527765240645918,5.481478991912468e-05,4.620879222188833e-06,-4.810267611235012e-06,-0.006624568509595613,-1.8295064280519075e-06,-1.2623197419697266e-06,-0.0011999078856299774
0.07840479460459258,-0.00011755445501320099,-0.0026763259359117077,2.3084168618643894e-05,0.0004911774465812295,0.025268912223079115,-2.946602967328769e-05,9.851236367144476e-06,-0.02332784302986374,-2.759150342288826e-05
-0.13241044523182305,-0.11305681645388745,0.2234852435723185,-0.0672622608665168,-0.04980966873372863,9.657316877776262e-07,-0.1037541369576537,2.082499025129341e-05,-0.03132286300596503,0.005778493068098567
-0.0712388488601653,-0.10422897904730052,0.24647621343942003,0.16644861531036637,-0.0427893030916391,-7.294881704405978e-06,0.04725420094284828,-6.4520703029567835e-06,-3.176207854463196e-05,0.04309135242887774
-0.2860061491520437,-0.005746350714215161,-0.09793976777223637,-0.3873158883175365,2.0462705133203653e-05,-0.013835883374232758,-0.10191133331352102,0.03675663669390837,5.3350591885834e-06,-0.05615946902031261
0.11986641653545235,0.02928423347078336,0.20327829926346272,0.05730974473154243,-0.0007529394923760737,-0.027151639356742308,-8.812462579688588e-06,0.058994994080716824,-0.00021374780868847835,-9.083355022982276e-06
-0.19991421942975976,0.03505607166285848,-0.20213273115711586,0.30154559028546185,-5.133620324455822e-05,0.11980270637391764,0.003137238898844878,0.00012748641545405948,-0.048910060565394785,1.6980213921283753e-05
-0.0093629643620117,0.07717415638615012,0.029953173032773187,-0.00018142330154972744,-2.959484484705062e-05,1.2567116646620798e-06,0.0001305208690793622,0.04235455530498996,1.224082149374208e-06,1.2992163440147293e-05
-0.2049024545313047,0.1942159349489826,-0.057145141983905974,-0.2557744596177395,-0.00013999956476300137,-6.768309920090482e-05,-0.11600708793112316,0.129336869002692,8.054124410731293e-06,-0.016976669671941773
0.07720742054254945,0.10969607325380858,0.02277811455405521,0.0012913723780547505,-2.8420011348451725e-05,0.00014629214076591844,-0.003667288500340797,0.07173808602687708,-0.0003323098813696271,-6.399904471917653e-05
-0.1437979640857276,-0.023069861481368945,0.038811473821054945,0.020227642781474223,0.31308084335180847,6.27931677735265e-05,-0.0612840391429512,6.946768295090459e-05,0.00019855162611052247,-0.03460615339125865
-0.05458660530477855,0.01381985626347162,-0.0887458562473724,0.15182723707623702,0.1643784047200295,-0.00015822395274747104,-0.0005085931955232017,2.9578906429645965e-05,-2.668489017164269e-05,-0.0005342820521260429
0.278512742265419,0.11756596069816154,-0.03728076198790816,-0.03147377267893712,-0.0011295688111724812,-0.031880384535034174,0.01765394206241153,0.07417073463834738,-0.00040847232015647913,-2.1468737496410765e-05
-0.050310360890197414,0.003279079290367201,-0.053218882900537876,0.058950927062790294,-1.5086626569249993e-06,-8.325791792741553e-06,0.006028989978146136,2.1360373497332836e-05,-0.00010667459688738461,-0.0004651895312655314
0.04709269849925471,-6.256684412409747e-05,-0.1371517258683108,-0.000991891630778675,-0.0010692076344720747,0.04230269654065007,4.9416982522142756e-05,0.00013013459134904063,-0.03973138819040355,-0.0421233875733103
-0.05405860188724275,-0.009101762905967406,0.029619154658837223,0.04789893423196803,0.03246415450327983,2.215354803402637e-05,-0.0013823354492408118,7.835051543846302e-05,-7.526391443017882e-05,9.273469775548957e-07
-0.0016755051474110977,0.2064934978819776,0.0033163258374165586,0.10166565574596326,0.0004303740124705864,0.000540889244542724,-0.023673666830598707,0.06720389771801588,-8.144113038770968e-05,-3.3574838058477365e-05
1.0377726828972216e-05,0.13248940180566077,0.05505525433038576,-2.0852546624127827e-06,2.6418261061890784e-05,-5.859524120488698e-07,-5.267875867018873e-06,0.14097710626386736,3.151214110077227e-06,1.6770390229812094e-05
-0.08361208746164316,0.07742371215415143,-0.053140318556804386,0.22759187976068915,0.004836129694577825,-6.160206558488575e-06,-0.10890274319516376,0.0019073697242297243,-0.018537859106649242,-0.00042092925416664396
-0.0008787059167642099,-0.0008151525262201581,0.0006442167829530629,7.01497655824319e-05,2.7533976714493808e-05,2.5731583283142024e-06,0.00010266568574225178,3.821000890768872e-05,-0.0001357779853068216,1.2203003014641683e-05
0.15143361011128356,0.13260624420864886,-0.0313734330393591,0.03156504502460929,-0.00012437131139807938,-0.007248549114825806,0.09099609342818422,0.12906231571974025,-0.0621591573531401,-0.057329972863214354
0.6243211235881482,-0.06586510820124286,-0.11427059003770171,-1.458159289806442e-05,-0.053249096275110444,-0.29725707140226904,4.617538308695599e-06,4.636850527234317e-06,-1.080060726419382e-05,-1.9101870175403588e-05
-0.059019260823384295,0.09319629794901366,-0.03390321087798488,0.004428473759161948,6.071338146327279e-07,-0.00019477786401901075,0.01008568356864483,0.08090005418869065,-7.89279408634417e-06,-1.7169860863919593e-05
-0.055373506395421025,2.4614079662717637e-05,-0.021327023877463058,-0.02972663708938328,-1.744986230355613e-05,5.0824889900379054e-05,0.01147826793365197,1.293753979756228e-05,-6.131548387127834e-05,5.786255358691905e-06
-0.03753056029709717,-0.0038437981406501073,0.00023758166249471195,-0.00011739807504826348,0.012833487479960234,0.00030871791415511317,0.004492037636394777,1.5508113569890476e-05,-0.0001558111403746685,-0.00014965640913685007
-0.04127937378601482,0.13648980908682767,0.03639157366918455,-0.005074028951632801,0.10926834891366398,0.0010929898059488347,0.00040308022927220403,0.11881454457921631,-0.002075688776368533,0.0002473859273575312
-0.03237243886033045,-2.778913683982952e-05,-0.00019369657305344347,-0.005778798060151798,2.8352446179550316e-05,-3.467226667916585e-06,-5.229961427065687e-06,8.703780043819003e-06,1.5807676322135384e-05,-5.140522933380649e-06
-0.044505845494312954,0.03694902602724604,0.028582397136210965,-0.005815881795467823,-1.4737486275599643e-05,0.000195618663657678,5.8253559767772146e-05,0.04653654968120935,-3.390216753169629e-05,-0.00014282751695532644
0.03622084256852871,-0.00015794111657618185,-7.609075190466028e-05,0.04654842743109736,0.114858867926685,0.054565705208546096,-3.915312226995186e-05,1.6858548105729678e-06,-0.0032007793283414243,0.00019859463099107893
-0.0012597828084319623,-0.04645505812178994,-8.869140487532091e-05,-0.16680895942036553,0.061813538782111654,-0.09989601105275181,-0.10659893298623081,0.0004462116747964214,0.04541347676589419,-0.05290193363459537
-0.0001636275080842827,0.12985841555712152,0.027660815654924842,0.0009124905935495467,-4.145493458024536e-05,0.0005955050519319674,0.0001698043730916821,0.20048468296067412,-1.1141237209887247e-05,2.4451332840439024e-05
0.013073878835776634,0.04870751467701929,-0.0019978993639078223,-4.0341807018660874e-05,3.10060184792186e-05,0.002741880117518308,0.00011738289386925293,-0.0002234042612379095,-0.0007412691763913893,-0.00014126370766935777
0.004303725047989738,0.22184436282686135,0.08812473348291266,9.939893014730606e-06,1.4738817596848678e-05,-1.5915832984553792e-06,-2.8375386366084224e-06,0.058553817445377285,-6.043094230769406e-06,-5.09394180725819e-06
0.031504009098760936,0.5409912499332522,0.22367603123544738,-1.1198080710959036e-05,-9.461554793169977e-06,-6.9384945666504016e-06,9.774539142879374e-06,0.08445062343014101,9.702358565601838e-06,-4.3213383772762554e-07
0.015900332732089517,0.3491403008133877,0.1433459599823537,-3.7088196278454354e-05,7.668805867805523e-06,-2.703903630879711e-07,2.1654182458552585e-06,0.21618947129875246,3.534230629070953e-05,7.126730550138232e-06
-0.048126416652409486,-0.09236685153894167,0.24854534729156713,0.05540550720652116,-0.012584323635877403,-3.061089413266999e-06,-0.004669337284606455,-4.541486314263752e-05,0.003501544624645488,-0.0013093425965322017
0.1050784488221355,0.40478884889663563,0.10013935777400979,-6.029770476549512e-05,0.06391458849200812,-3.680809604196144e-05,0.00045032163034991365,-0.08543300667531474,-3.482937354148509e-07,-1.808477630978103e-05
-0.16927742992935302,-0.0056873840318090955,-1.7666624705531286e-05,-0.12146785420518771,4.005134129076008e-06,-1.5921096283688987e-06,0.04711241789653954,0.00031388841056601864,-7.387251114814612e-05,2.5130131109526022e-05
-0.0511793724091167,0.03945451479563983,0.0138693849171233,0.008081363018610717,0.027418383608455908,3.411477924177914e-05,-6.395710306309573e-05,-9.549436098165268e-06,-1.5239709800587036e-05,-9.201841835006726e-05
0.33050082994988733,0.17923505519475108,-0.037262379089475176,-6.633814623284313e-06,0.052300086925067324,2.8512429044029866e-06,-0.00024829527740227156,0.04126684616357498,0.0003175077780805982,-1.0917837490895127e-07
0.04294576622701093,0.05295127503040588,0.000125079790602216,-5.806267984036887e-05,-1.5940168507187028e-05,4.457223342701631e-06,4.2946091978622e-05,2.6436030649631076e-05,-4.0844837059900497e-05,-4.566633899060595e-05
-0.02807918639905876,-0.0004021524426122827,-0.01675854329123787,0.001738602116788394,9.641572936113281e-05,-4.2492010244540844e-06,6.264996683907827e-05,4.685898069857759e-05,-0.00010552628864416345,-2.006585445020442e-05
-5.6360405421292216e-05,0.19714356996842186,0.03808201899156861,-3.098114161993499e-05,6.448034520664885e-05,-0.0483532780375436,0.041767717163759266,0.10647287163628935,6.235476340493067e-06,0.05173450380602921
-0.15261763725043892,0.03797258272580249,-0.12418242025512244,0.00012442643325867226,-1.9058332930060558e-05,-1.6915945074027052e-05,-0.24523712663756977,4.3732120615803465e-05,0.0002340329142768935,-0.0015446754878584818
0.05373365017165074,0.2654417159665429,0.10775664897329988,6.291737122774464e-05,-3.6419720931792174e-05,-2.327654210615382e-05,-5.4496117817619414e-06,0.20517255060271658,-0.000370711227493413,-1.1363614082156357e-05
0.1902598540361269,-0.08524158337444754,0.0486223751976745,0.05547181461213818,0.00046135247005628876,0.000155277864414837,-1.81539185241048e-05,1.6256277693396596e-05,4.951462475591207e-05,7.792898769406048e-06
0.04818311177521578,-0.008169836082522253,-0.006703712588849992,-0.0004452167793310096,1.5019410055876197e-06,0.005323700227323389,0.018993579643822523,6.756019271231568e-05,-0.0005098639586265533,-0.03618120666641886
-0.0170299420431446,-0.11722605852632723,0.27484262279753674,0.0321507774972609,-0.011381626608335593,-6.701917337164751e-06,-2.436513092219565e-05,-5.105205366737215e-06,-0.26167187128898767,0.35483233387988466
6.035060256436826e-05,0.04435116216316583,0.002464656143234425,0.0008618380898284698,-2.0710728378901135e-05,2.6011824302977583e-05,-6.849293022028105e-06,0.04163755084379114,6.868785871863656e-05,-1.0965275534578983e-05
-0.0457690074495501,-0.0002699230768957668,0.033256238192385254,0.044545642023873684,0.044959766979170396,-6.543901549582822e-06,2.446156776026794e-05,-9.468000216815558e-05,8.216062088025201e-05,-2.17297289177767e-05
-0.02087185866624525,0.19567840205537657,0.04060882567369269,0.058860326026807956,0.07199184461583638,0.0003696562046152145,-0.0001531173702758802,0.17961038337428026,0.0004402123368955601,-9.360265837400001e-05
-0.053460699689069836,-0.00467239846390762,0.002900962736331769,-0.00044749383382888304,0.23199675914171022,4.0752000996987736e-05,0.06809387254181884,1.5022328157419738e-05,-0.11352382253848181,0.01010745453274463
-0.05123669751539948,0.0004260672216576077,-0.11429948677788161,0.05341982187681753,-0.0004994222749215305,0.006278376344988457,0.041069623043008555,3.508559158798217e-05,-0.03248951925544688,-0.046055379255642855
-0.0794360361510524,0.019669212766574063,-0.175369830125671,-0.00037604923200117374,-6.154495976516328e-05,0.15405591268522284,0.002946913358888533,0.00010520363196714976,-0.04822439653774555,-0.06072793628135324
-0.08378376059757259,0.00010780056594706523,-0.11561286890243239,0.004212958715805208,-0.0002369749973159469,0.14245670746231442,-0.00011148454334130212,7.715632255618035e-05,-0.0441244874907893,-0.06312602158535567
-0.1919042386355042,0.05052591115898608,-0.20806276159094222,0.14297956255550684,-6.149214109618354e-05,0.0003546964726051064,0.24266771547734295,-1.0272504433722736e-05,-6.745581806960902e-06,-0.0002126266023616387
-0.15223438666300246,0.0722386418548034,-0.20075255861921312,0.3624512752485477,7.199230736021359e-05,-1.239869449886428e-05,-1.6489455353630962e-05,1.0403822339055316e-05,-4.503465307807428e-05,-8.784376454777335e-06
-0.12580045895485803,-0.0019280236014750276,-0.0436626640457465,0.007032685969550627,0.0002827223944354452,4.6525138068529794e-05,4.092394122843508e-05,9.285527806967409e-05,-0.00011643699288051238,-8.922662650573897e-05
0.00031388437462377645,0.013346188462657328,0.07614600331828804,0.0001606391998060331,0.05784642464194038,-0.0004000351990478087,-2.865994980925186e-06,0.12510468890237983,4.860094937789421e-06,0.00011749202097354261
-0.1030018211723936,0.1237041094993585,-0.0007602792790022668,0.06394431037258198,4.2867594323745255e-05,-0.00011442520866771755,0.05091990618540012,0.09900097725723299,-8.809200838760677e-05,0.0001439430139395298
-0.002851092664303906,-0.0004095255582131687,3.504426459299035e-05,-3.519817234462047e-05,0.00026156609206785553,8.810580089741601e-05,1.1997830650101183e-05,4.8858933642676185e-06,-0.000142742590151754,9.80218747785345e-06
6.997167681971628e-05,-0.001970848870600222,0.001631266808250906,0.00020209829572492293,-0.00023653960208977443,-0.0002865322685741225,-0.0001324374937760364,-2.3009997412983544e-05,0.00017439953383490453,-6.723529778656856e-05
-0.04091642249313325,-0.00026526257806615207,-0.0362820581217565,8.530667354328625e-05,6.635712479346312e-05,6.5823996734696745e-06,-4.965830697246065e-05,2.2113636884336047e-05,-8.681277495103544e-05,-7.737825424376943e-05
0.00437624398224913,0.04518534250723425,0.008162057438717304,0.0026025105522338534,8.706481927630638e-06,-0.00014921117885823598,-0.00271188212040595,-0.04541091224770782,-0.0658763802434235,-7.4188428313604405e-06
-0.0714450839133568,0.01653109101490623,-0.03215658290923147,-0.10743130151744448,-5.714844907346558e-06,-3.251057297592539e-05,-0.06403012198044547,-0.00040884625293932984,0.00012198791140696006,-0.0014823996218631336
-0.03203202740195761,-0.003209128981712178,0.0015259604585594656,-0.012565448518070612,5.797616441898895e-06,5.1402278343906544e-05,-1.0937207547683845e-05,1.7514546943979614e-05,4.283084798941854e-06,-1.4676091348528691e-05
-0.11513038045248236,-0.0009105100332504784,-0.02714942440826153,0.0002451990937728161,-0.00016694662199349622,8.96839189905867e-05,-0.004314624250131652,5.5502547362928486e-05,0.0002219887540431847,-0.0014075911912609063
-0.28284592647499107,0.05922361836969627,-0.24031037997833907,0.1377350178874532,-0.0001419401044972652,-0.004296750735169361,-0.06025473369375922,0.0010619418727859289,1.4302394705306087e-05,-0.04943168626566292
-0.1242371544009947,-0.0027280933528942295,0.0013809953271656681,0.34156231868697023,-0.044480219824097486,-0.0006506937034765695,-0.13727705359301134,5.108861721139128e-06,0.0367488500205297,-0.05679592865945215
-0.021542263432803722,0.028312933604465573,8.9121361425367e-05,-0.0003075636411830526,-2.927469239797242e-05,0.00026779026350794963,-1.7028913344672684e-06,0.0545397907338677,0.00021489870191191118,-2.6893780415478174e-05
0.0323723342078377,0.17543213978190628,-0.18541745748653812,0.41342346435932337,0.03921009033778818,0.5313574944469878,5.689381294809432e-06,0.03301489863458573,0.056247939323189514,0.02560688942259347
-0.08477861178630425,-0.03382323202601602,0.00050269749858357,-0.00012125144174795265,8.072086345931949e-06,-7.695065917174511e-05,0.03398363544115629,0.00011264799121308625,-0.05179529537621085,9.323106730473015e-06
-0.045727526538485636,-0.000285608181563484,2.1281493379577673e-05,-0.0001667969512141984,-5.752121634116706e-07,-1.4922236505302171e-06,6.993120395015513e-06,6.34289610107768e-06,-7.733390888791549e-05,4.775888080078153e-06
-0.059806192546469496,1.4657107618576816e-05,-0.05835018435144959,-0.04255289836011782,-3.7926585464162035e-06,0.0003217617941879666,1.411754591127081e-06,0.0002909997751787186,-5.4450950707115065e-05,-0.0383509054227782
0.010472640789833138,0.14346392146464648,-0.02661917584493368,0.11185773228554026,0.00017390406520284294,-0.06531027862505548,-0.06957291881713641,0.00046642549671264586,0.002455474252965197,0.03914022273067148
-0.40896596725098555,0.048508132732150724,-0.2906256748548129,-0.25302068680475753,1.0464193851398282e-05,-8.217266713003353e-06,0.12077597218098694,0.030127131012713238,-0.05199756637494504,-0.06993714693142349
0.0009753817605407093,-0.004202221929543931,-0.016903255284331183,1.9412176290259056e-05,0.00036402896127999974,5.338303933325518e-05,-4.024402542798253e-07,3.996518089902139e-05,-0.038496639402612345,-6.690817811127797e-05
-0.1027601911191574,-0.0005801721371135288,0.1578037152575997,0.050430080177447476,-0.012516586425999355,4.4432127618761795e-06,0.11454592087944358,0.05225899290271097,0.0001978418258301134,1.805465757250991e-05
-0.05860240407845593,0.05561202875898704,0.027050365342979103,-0.0467935161775883,1.2981041714506246e-05,3.340261476225578e-07,-0.08030525249909365,3.859088620206272e-05,-0.00013492823133084915,-0.00036675757943800647
-0.07450951840908714,0.0010633044773589665,-0.09671154657688265,0.09022323574836293,-0.00016730800086629582,-0.0095883107905525,0.0001052145982830996,1.2140324383040628e-05,-3.340288216678667e-05,-3.252476437374521e-05
0.12303978143124224,-0.082211353797833,0.03134342998821755,0.0819208624734267,0.04661964659071265,-0.06416008764632973,0.10316638131766791,5.81622350017809e-05,2.0832743599201738e-05,0.050784414506680337
-0.1669308060451872,0.09790119003872806,-0.24576035772053198,0.5666875575620542,-2.324421865917541e-05,-1.2361156627799352e-05,-0.07642662763117589,1.674157537483973e-06,-1.711192872051513e-05,-1.324018134088865e-07
-0.0030515730790071404,-0.00019728266116887566,0.0001933859389030596,-0.00023375330815037586,1.948419669846456e-06,8.658226027470858e-05,-0.00017402131441124246,4.634902590354122e-06,-4.145089315396899e-06,-7.817994136944737e-06
0.06220524170544855,0.10241052210495935,0.0932594107504647,0.040014872894352224,0.06546417499346475,-0.00015383557269075957,-5.411221586689169e-05,0.0002860336471012655,-0.001924353447732742,-9.122126236387176e-05
-0.04818476869746276,-0.00034595749760286113,-0.02807462739619022,1.858582969428045e-05,8.343791618536918e-05,0.034027251558724984,9.976281596456624e-05,3.1994823666171095e-05,5.0517868371213015e-05,-1.018412031571234e-05
0.036284372420309075,0.1371381609979805,0.0015263182528721894,0.0001760249431972753,0.00019439611921644024,-2.1769007986154758e-05,0.04607398806990427,0.0786713747908703,0.002051075903398337,2.8811240945771963e-05
-0.10222671895417831,0.031126697856183754,-0.0880915093277717,0.07147954327669366,1.6221464586750878e-05,-7.073625329561065e-06,0.00025405170742841645,0.00018534000384794322,-2.6670456716294226e-05,-2.0708464657856946e-05
0.32319565352553153,0.12010361807760711,0.1671035791075575,6.0646365772025923e-05,0.01681116516205088,0.10684524381434304,0.00014054409254312048,0.13743299745390014,-0.1154677017012382,-0.06158522462834611
0.7157640729813544,-0.126472607501269,-0.045361766582220436,0.050286777626871476,-0.024982726494660046,-1.8444633712224797e-05,6.649870947781974e-07,2.59244037492372e-06,0.020871100828748677,0.014642145601871034
0.1282387434461558,0.13660581313304268,-0.02866050054497653,0.019033775747351395,0.035806111934087885,-0.0023278588188791775,0.00670771099030263,0.08236887357701617,-0.025078634997238804,-0.03466273580461031
0.05004331664466534,0.17745393918892552,0.04633258882330238,-0.04049787780555374,-2.801846648758007e-05,-0.03987666496742862,-0.028164919483987874,0.17371667641516803,-0.0002142497550513402,-0.00025029557867180317
-0.0002561202354886927,0.09466056107159146,0.043665465374958815,0.00015848478889042146,1.8704139915011373e-05,1.6198136802155822e-05,1.4436159285605678e-05,9.369107949117866e-05,-3.908256358545542e-06,6.746919185391726e-06
-0.23412977251156025,-0.024715015271235777,-0.12574337886845982,0.06849499400980191,-0.036364309154127326,0.06316266807654618,-0.00617497956434158,0.0037193811054252787,-1.8181646199837337e-05,-7.30582453811509e-06
5.098827943231079e-05,0.13314965709368862,0.05724748632356235,-7.878246767220363e-07,9.484808064335101e-06,-8.779049109016011e-06,-1.6856857540811979e-06,0.11765844453228737,3.58102461326622e-06,-3.3594805961040246e-06
0.6391928618775349,-0.05841725442364338,-0.11266883465445132,7.191710109584798e-07,-0.061495568268141614,-0.41619822732734824,4.1540174240228115e-06,-1.631809522040392e-06,0.09502603308141565,0.08208684266274077
0.5678504646355557,-0.05764016142543129,-0.36521626995065454,-0.04237948274733401,0.038079513808227564,-0.027920156967234294,0.17950561267177645,0.0004981827802685862,0.0001984116404006249,0.06718671845488018
0.1314417089240558,0.09879267315304877,0.05739151869524571,0.0002749578282038461,0.001004330393731473,-0.0014341979061122945,-3.820189738495888e-05,0.00011277229271671785,-0.06936752375095998,-0.08124648623602544
-6.151608896848639e-05,0.2984097233879929,0.11778035150368246,-0.00011502462133263273,-5.331000846638894e-05,7.880062413901286e-06,-5.354910335195597e-07,0.2779217187806979,3.668888147094833e-05,1.621796639863593e-05
-0.23013463257208291,0.005269046683621244,-0.11714637349389771,-0.16935457869591758,0.015423190136440872,-1.8164913189721318e-05,4.278787695467897e-05,0.00025161743926926553,-0.0333939859300897,-5.170627334144267e-05
-0.26629187244893515,0.0001974052924144748,-0.15341392582492258,-0.14122912131972495,0.00019183759911572666,0.010046472915282935,0.1196828804586764,0.002970520747063936,-0.037316617325231616,2.6927598462018513e-05
-0.05245301077349828,-0.0010375031209897021,0.00037750043959082686,0.00012413085531784,4.96071795181001e-05,1.0235654416593631e-05,8.171473618073452e-05,1.568154839571779e-05,2.0751638871788234e-05,-0.00010254290294111815
0.0002265036472207954,-0.00020818153545622316,0.10963295480320713,0.06030274551883224,1.3671922262460081e-05,0.010131514925014865,2.948669626660755e-05,0.0006431748306424817,-2.4918255656602507e-05,-0.023836016940423574
-0.053098372770831966,7.570787589613522e-05,-0.02657726785829478,-0.002912952321812987,-7.722317547027894e-06,8.105858170012486e-06,0.0002812923358971645,2.3057698706323504e-05,-3.34535858949348e-05,-1.7006906905692633e-05
0.0020702503077969893,0.4620399171648985,0.1558083664672107,-0.0424767126090399,-6.738911981466348e-06,0.00041105859836594274,0.0005804006794962661,0.24421993695002558,-0.09366367721540338,-0.05677410379728945
-0.03336155993121087,7.741377596628115e-05,-0.028434925237634988,-0.0001293763882197501,-9.061172600339183e-06,2.0309955536197664e-05,4.239063137376633e-05,8.819685551253366e-06,-1.714923764337447e-05,-2.2563777032146262e-05
0.1794155027582645,0.08756994391105673,-0.0025021930607914333,0.00010597653630467283,0.03271977171853827,0.005903174668303353,-1.4341593812595116e-05,-1.7614658050602947e-06,-0.06018951547322892,-0.0006964323507152314
-0.19228502538107134,0.08039679021002882,-0.2040965161186515,0.2430504370353137,-8.72531993699407e-06,-1.0762438240403083e-06,0.10372102638302969,0.0003090396908380312,3.930704084242665e-05,5.567934512839628e-06
0.0007429783249061293,0.219521220171763,0.09024334525445768,-3.515040999636947e-06,2.0350419268992155e-06,-1.20511023483166e-06,2.474044090512293e-06,0.20421657205240487,1.3876043963283148e-06,1.0024196434077052e-05
-0.07592366408510198,-0.23259371659421724,0.5443415263626971,0.1877239358188998,-0.0968765657788173,-7.6293873162734835e-06,1.4262290230021284e-05,2.81987284179074e-05,0.1171792945898385,-0.09042008440018916
-0.10732454984854686,-0.10030991783499961,0.21430549199979484,0.23396187497718074,-0.07006600233106243,-2.0167074945379247e-05,9.324753377041927e-05,1.2644065811353562e-05,0.002377790939943256,-0.021685667524672773
-0.06963240716505556,-0.2323537093719709,0.5442031759862819,0.16522877571873731,-0.10323423111943031,-1.6650776911144923e-05,-5.514491571428262e-06,1.6917267513307974e-05,0.004841140066728413,0.05604154593032665
-0.07840881363597421,-0.23330363783457306,0.5478076997202161,0.18198436483796723,-0.12040955294369075,2.4352798723969303e-06,5.369895278301742e-06,7.787085698751449e-06,0.12686294871714204,-0.08081426657236362
0.07772224142795733,-0.0757786870667042,0.13962559636723337,0.032910359462654304,1.090403224074331e-05,0.0390336433274791,-1.5346573258847613e-05,-1.6182152645168534e-05,-0.30307439725685376,-0.08408482251225138
0.7080967005394242,-0.06565496450189187,-0.12248998866127225,-2.1901045031407205e-06,-0.05803373068669494,-0.22005025944214002,-7.469544265147964e-08,3.828655013594591e-06,6.613254551701151e-06,0.015573491651164943
-0.26741834960010497,0.09477657526964552,-0.27987648702666706,0.35020029743424336,-3.135165471138728e-05,-2.7085044418177875e-05,0.039589810400810235,9.066561935261234e-05,-0.03423665389910765,2.9374785454842846e-05
0.01730938772685105,-0.10004014547718464,0.19015018020643057,0.0003092136586488499,-0.00011856602722943621,-0.00019449627658617898,0.00505636411457566,0.00010546418272362972,-0.29927952772057687,0.40381938558803054
0.13165735611627413,-0.013027055477572934,0.00032756563324538114,-5.813221089883256e-05,0.22966033010263825,-0.0028167675213588957,-0.00011719611797684475,-6.86901888246498e-05,-0.2490212652231297,-0.17994214108492299
-0.11317627056126114,0.06912374583781802,-0.16831241231149421,0.37775362450917777,-2.579780019436286e-05,1.1023287534804912e-05,-0.09789915702173982,-1.5262326741758094e-05,-0.0008246269115655705,-0.0007696325603492937
0.1626008646691287,0.3404025501594265,0.2037066016529399,0.09771772512278651,0.1369204414968154,-1.9303683278898367e-05,0.032436141368674655,-0.05924524851289574,-0.16732683588496267,-0.07686496641697313
-0.1576627195318024,-0.003185598760466454,0.0008951963514448754,0.15690846924359453,-0.009717918218117662,-8.626829629302979e-06,0.018756401117456283,1.566149108944068e-05,-8.173352843125521e-05,-0.00010985500614663799
0.06132437993282547,-0.000468398600124703,-0.031873147335339545,-0.05943909396090716,-0.00488026952930476,-0.06840243173488186,0.07867864891978404,0.02550298004396841,-0.053339804896361774,-0.07098234694404658
-0.1504654869622718,-0.03500104583695919,0.0018938222608228226,-0.057696760424424114,-0.0007162741742081951,8.397408259177659e-07,0.19725495148522992,9.602003901539827e-05,-8.515901501111375e-06,1.5428751413141544e-06
-0.10172087654825576,0.05855909761313643,-0.15072213498726242,0.34356518811440034,0.2010155968492795,0.0007469115207898292,0.07902998032102641,-5.173359152345076e-05,-0.00024723785261931703,-2.0904850241407528e-05
0.13599877783285297,0.128425088362281,0.0002940650055139844,0.0012898713220513651,9.923362946016013e-05,-0.059623273510958,-0.0006512586222713132,8.991804262716348e-05,-0.03518810491896134,-0.00046344074230230775
0.07663002759892179,0.0002676946267841902,7.698755556226394e-05,0.0018242026387459752,7.21213249957186e-05,4.534532182687697e-05,-4.2814648424484334e-05,-0.0013653143098552997,-0.002777143625227559,-7.902257892190957e-06
0.6304524468964227,0.07370784149635234,-0.24217494129126077,0.32890195634306835,0.11194023198901046,0.13562279434848815,-0.16330750373135866,-0.04799071161010727,0.04595875480079308,0.00011387775461663953
0.5536742229075725,-0.008620769992995487,-0.0872124561309397,0.0001699507268144906,-0.04661524533598611,0.0008409764756001029,-2.9357109750263507e-05,4.61816887117033e-06,-0.04892728115172127,-0.05889012546117748
0.09557913161382801,0.08255811212081184,-0.26623689999024314,0.4571515176053616,-1.982183101444668e-05,0.6953824521301357,-0.19721669361091224,8.120327951767576e-06,0.19807904175602412,0.1290917060918967
0.00040787618302479004,-0.1655811257258544,0.36295458433765354,0.12820406074805551,-0.064724417292017,0.026214345207208656,-2.5485080988619607e-05,5.069440314626768e-06,-0.10334179433368178,5.7700490018857856e-06
-0.06602683940870092,-0.2177545924214981,0.523703557973762,0.16261709586506107,-0.04774378359572597,-9.383856215489908e-06,2.710806926875454e-06,-7.233914480155668e-06,0.058796807591558205,0.00014362172281476163
-0.08726690301906294,0.08908371933474604,-0.21301755735280145,0.49899053950386163,-5.622517704898517e-06,0.12429754252071935,-0.24653251523866046,8.163358677416713e-06,0.05054045341216665,0.04502995841188198
-0.023773943525631728,-0.0005890216974236885,0.0001287170791118063,2.4589593000138863e-05,-1.3429179754217755e-05,3.127132994940486e-05,-0.0003553589860405035,1.126499864063873e-05,-1.0760214037166954e-05,-8.217891441502014e-06
2.9917469972234996e-06,0.2302150816118695,0.08725605945820654,-4.25040890719667e-05,1.914783904748323e-05,-4.216073012923552e-06,-0.00012593771158949058,0.1955347126320947,2.104601555612543e-06,1.3969634910866882e-05
-0.45057892771884417,0.12425453994598624,-0.4184787414831427,0.2825156492208314,-3.537913521376325e-05,-3.055123387355462e-05,-0.09529496748580732,0.0012749806706378966,-5.93827609670108e-05,-0.025997907967798464
-0.13385868339065762,0.08830896169032973,-0.20702403032707806,0.48768580816474644,-6.986354019683921e-06,-1.8397090757516506e-05,-0.12773120384013406,-1.4822719796798377e-05,-0.0002032637682168496,-5.547256446933904e-06
-0.13545511774555047,0.08185555316569548,-0.19812968562504776,0.44355890934117287,1.2613367609019178e-05,-1.5777036888650254e-05,-0.059424100439583794,-3.176069185676797e-05,-0.00014437424967205057,-1.2267146426254322e-05
0.010232668376903472,0.3647231825584119,0.1545062989447218,-2.8597818409048495e-05,-2.111018975346081e-05,-8.22860439090102e-06,-1.0118554736861168e-05,0.06050200308391987,-1.843847587911508e-05,-1.2180772980714962e-06
-0.06398640001292463,0.05896461245427869,-0.050861925964173424,0.1046323494268813,0.0003748076384670161,0.052282056992537226,-0.0008200663493668039,0.0059874476743706495,-2.3886111459902836e-05,-5.608379002904707e-05
-0.00017349875906471808,-0.00381181572050448,3.726548445564244e-05,0.0002801267600580876,0.000536371074816805,0.0001506008085229726,-1.602057824639748e-05,1.0754289409031508e-05,3.825422705833335e-05,-6.785052793844657e-06
-7.731534197857744e-05,0.24566448322268145,0.10239658022250749,1.4897878695717865e-05,-3.678268750033182e-05,-2.1783314735106568e-06,-2.939264751128289e-06,0.2362914293237463,-1.34802699903104e-05,3.725863460319613e-05
-0.11956903913401223,0.07984455535425923,-0.18847327150839344,0.4268512502750982,-1.1964091408482335e-05,1.8932956860520482e-06,-0.11224994719322848,1.0073721588114398e-05,-3.7741970525368035e-05,-4.8616512480753035e-06
-5.5939497580514166e-05,0.21719495494928145,0.09565534960003594,3.499213593744829e-05,0.019636340189563173,-8.828119687163176e-06,-1.0056491092828016e-05,0.17917386713131347,2.8151281374317833e-05,1.5556951681508024e-07
0.09623035991836673,0.34351123914126896,0.08235705532884287,0.00027240722988312703,0.0737762356290206,-5.791758289271248e-06,-1.3185811428431786e-05,-0.043145136137207184,-0.0030813681645436154,-0.047899374485453075
-0.06256480869268934,-1.7460637145480258e-05,-0.011352415869509375,0.041762995722319986,0.04748834134154537,0.00018052539324347436,1.8023556124450944e-05,5.052058440307686e-05,-4.482879665554513e-05,-0.00030440940250004784
0.10905018174138868,0.08329209447137102,-0.0004932241018443535,0.08200660299834735,0.11091174077003269,0.15975332922871444,0.01307447374643012,7.23302245741377e-06,-0.00016963013656548368,2.5308274236399433e-05
0.06602017023464365,-6.604263235674229e-05,-0.00026891434855775355,2.522976022791238e-06,-9.817828527002552e-06,-5.1451603962691876e-05,1.8268784793783428e-05,1.5976620379461057e-05,-0.0010097539296830174,-4.186987842978728e-05
-0.032256389802852975,-0.08959658536313324,0.21340819945320527,0.08138102285748962,-0.03823022964106921,-1.46435043113659e-05,-8.439917739011428e-05,1.2360832005846287e-05,0.0007718403553078725,-4.899900314975535e-06
-0.07335481991259318,-0.27262943010243257,0.6270790451650913,0.1882822292689536,-0.10538961716793992,-8.688673618909693e-06,-4.106415984963521e-05,8.783365818412201e-06,6.16842103277672e-06,0.10975656039983338
0.454975934633995,0.09037798608898862,-0.05097672000392001,0.03290178109456197,-0.0030936060182051826,-0.0577760468870598,-2.4727647016457453e-05,0.06538826948132152,0.0004257282120306266,-7.953712299636615e-05
0.6810887508566521,-0.06617226124486206,-0.12800651967041693,-0.002139776438274186,-0.05008859263642279,-0.05237800794839291,-1.194715959786707e-06,1.1859580075518955e-07,-5.269732729109652e-06,-1.07636038969993e-05
-0.1383483380641847,0.104954743420127,-0.21432460477249232,0.4991226342709639,4.885736812334159e-06,-1.4830583794755983e-05,-0.10931767693546281,-2.1704962924383246e-05,-0.0006157041471533025,-5.3838603316176574e-05
0.255472142273535,-0.004323561784776536,-0.046715521997155916,4.2586872098972073e-05,-0.00035111650062796037,-0.04818990733589955,4.199689433023616e-06,-1.3187046906010178e-05,-0.035517221970484555,-0.046273008902160774
0.409166202435034,0.48533518257684805,0.1361920282598892,-6.1139985555186e-05,8.558132814754246e-06,8.70742665039672e-06,0.00020151324915650758,0.09283710634727503,0.041777894809361935,0.02713428968180124
-0.08161796602250307,-0.00022698565098913437,-0.0005162372139675339,0.05703822951245455,0.1901027556793759,0.0001518030072575393,2.138696836483446e-05,5.036419112410633e-05,-0.09978653623527234,-0.00026331150439413585
0.5980651155883435,-0.0625846045894865,-0.1311359462841685,0.004910982314601481,-0.0321950484653171,-0.1755211472623156,0.05255219658562398,-4.3073701638347865e-06,0.10047747852936804,0.09310314585052828
-0.2524840019602339,0.02225377035514149,-0.1633603868453321,0.1275641822107181,4.936661731182247e-05,-2.2123372851263723e-06,7.271878623387693e-05,0.00036071568537190046,-0.015929869712658227,-0.05423919309482107
0.21283513018534175,0.19646040203895623,0.05402993711759623,0.00015811701228267755,2.8102431358152715e-05,-0.0019940995296809285,3.600423178315186e-05,0.02132025317120682,-0.0007369747685533094,-0.00017500017426702743
0.06917032180424754,0.15311214384367758,0.05892805750955837,-0.0004553670105511916,-0.00016298833441964492,-0.0456515110078005,0.0007194150728843417,0.10251081836496684,7.78660457147672e-06,-0.00012433845322580879
-0.11301412458118235,-0.07572530770535715,-0.1069999599466066,-0.056837180329452154,1.1224936189798801e-05,0.059330046374868474,0.020069542450935073,0.0026644550415151555,0.00044907565579064976,-0.0008058560322776966
-0.000562618939844723,0.12947008836721963,0.06451082812412835,6.507722549486076e-06,-3.3185180017766856e-05,1.6558857248511093e-06,0.00010042186731554614,0.20255173276612543,-4.233240070153673e-05,0.0004536756344687841
-0.00039488827917873073,-0.03567307107400393,0.1442323218497862,0.001393585395049109,0.5830667537617633,-8.426600780630448e-06,8.69328397301114e-06,-7.271362767825724e-06,7.169898535763496e-06,0.0638798182698249
0.054745562597822754,0.061523027296768985,5.0449367499574796e-05,0.09468690814355918,0.33287638928816127,0.07330511517679277,0.08656816515073922,0.01039401529781525,-3.1512621141108734e-06,0.00010355008028043824
0.03913281872344074,-0.0009820425961958052,-0.011572467664147958,0.010860349079471695,0.00033045421389738466,-6.7933427690443475e-06,4.698561191859024e-06,3.172127933939968e-06,-2.3207556105781385e-05,0.00011303315876791913
0.10661902093126444,-0.00022046753085948957,-0.02625116564306876,-7.968702092615951e-05,-5.37039574242631e-05,-0.00023088745775780533,1.4985395299743337e-05,-9.064846540011254e-06,3.8793188446709754e-05,1.0463159021099351e-05
-0.19992987338960555,-0.10185971473254025,0.18781119266818644,0.09088077008902422,-0.05158587217086937,1.343798252438145e-05,0.06734614347279212,3.2173241513403675e-05,-0.0006354535991842932,0.04151385605231801
-0.022989354734434524,6.439041810381414e-05,-0.009525990968091688,0.0015739280754949578,0.00021452409245054167,2.35691392447185e-05,-0.026640820644329447,0.00010704527733742289,-0.024878580236201788,6.6128076485537734e-06
0.09206123138387369,0.10667427613853782,0.11724895469614237,0.013004139792317789,-5.117855009973738e-05,0.004089016311040085,7.290976794609814e-06,0.0752050159472621,-0.09377604828254023,0.11383129995068261
-0.02977621388051148,-0.07956809945590933,0.18201630602077232,0.06181692863397697,-0.04068718596787102,-1.0766448470153527e-05,-4.012622064936896e-06,5.805630364794964e-06,0.05127330142506783,-0.027439941941132914
0.015853758487111503,-0.036278844396599175,0.06741747964445696,0.03420778457240978,-3.05115202821405e-05,-1.2042205363529026e-05,4.762333029837656e-06,1.973759675268483e-05,0.029694628124462656,-0.042246598192218106
-0.18900640781240663,-0.0012851367002010808,-0.04115797377239007,-0.11634773757339795,0.060523474705497515,-3.145483793215031e-05,1.0762128321699459e-05,0.03751698751053787,-0.0018973098701151189,-0.00016008243655073892
0.00012943637149390297,0.1846051051597761,0.07198328168150829,-4.402774900507667e-06,-4.739314452172247e-06,-5.261507213931524e-06,3.872003676486144e-06,0.07789347861401891,1.0702368714244183e-06,5.109716324556274e-07
-0.07437403317044619,0.1793216232660215,0.054275994327624526,0.0006813302554541468,0.04316275288329096,0.00043099262277763697,-0.0004276558101295799,6.787839003801771e-05,3.937463041192719e-05,-0.0034857854586520308
0.5043119067591256,0.23764163535252697,0.1695941834400757,0.22896564143641274,0.00011659970296451788,0.0001033087413251163,-0.026616454928615807,-0.02112973353086167,0.005822661673323512,8.582723716927638e-05
0.05010919863653425,0.03421913648748137,0.00043984240144449475,-7.810025637863404e-05,2.5846251397909932e-05,0.0003645388562150508,-1.3026438507582764e-05,0.0005517564083018499,-0.00027697984340052943,-8.070868946166472e-05
0.19902186539965144,0.269541055061434,-0.0006153769831057213,0.15872275808203254,0.08298364650708795,0.00029248141859690576,0.06554790663191952,-1.6306246013425237e-05,1.4906762570526587e-05,1.8688276045816389e-06
0.0005714777295347316,0.1426910568881139,0.05683193837761182,-7.082281777745255e-05,-1.4374107631818775e-05,4.506072693992122e-06,2.4773205166297364e-05,0.13165475447620775,-0.00023567273314095715,1.8128461014639749e-06
-0.0464068529526828,-0.0012565428816092466,-0.009475611406636372,0.043380923093544285,0.001773944443716246,0.0007019796401916488,-4.484244244270165e-05,0.0005876450954323073,-8.679427556453766e-06,-1.9525478363745473e-05
-0.07857205666986296,-0.00029522067731094096,-0.04415809856887685,-0.06171641511477428,-2.015947143041154e-05,-0.0006448877434946074,0.014868951662463704,7.798242082921138e-05,-0.005368395087854926,3.5247066434315226e-06
-0.05189914402019688,-0.003741603489845465,0.0002450394213153283,0.0010338096465994718,0.034779460598840635,7.351023153264155e-05,-6.146951396038389e-05,5.7801724235385645e-06,-2.2933144501125345e-05,-1.998047975740279e-05
-0.060475785789614905,-0.019698193385684643,-0.0007854263720987444,-0.02859180854381676,6.613949496676908e-05,1.42614770490487e-05,0.0008158256112784417,0.0023776760807077057,-0.0014521853491645217,-0.00028465681123747145
-0.19063133181532835,0.002141750039657136,-0.1039920987826117,-0.2280955312503624,-5.53234911765214e-05,-1.000450174789363e-05,-0.111083226557671,0.00018815952117678155,0.001396450728611427,-0.029789734826980663
-0.0789754485602305,0.0674930071133359,-8.785006737432796e-06,0.055885891706203956,1.8131340912165014e-05,-3.4877968751772197e-06,-0.0005025501417146776,0.0004602657728625534,-0.004597276994956932,9.251784297953892e-05
-0.0722721430965998,0.11849220434202991,0.07393760943238263,-0.059897500205463264,-2.750361203419152e-06,3.626319843719577e-05,-0.05332917955637331,0.20729728966337832,2.908946887299266e-05,-8.591606036590587e-05
0.001995162256108064,0.06584480728823265,-0.0001886113887569997,-0.001379426891387817,2.091292837817598e-05,0.0003316699155362809,0.0002098743350694952,0.11859326550117881,-3.609885715945185e-05,3.7710891506966626e-06
-0.0003133089301974617,0.25973715251394686,0.12499242202072643,0.00011055874603286887,-9.027446865464014e-05,3.500791528156154e-05,-1.4816258639119873e-05,0.2256308091055088,8.981003318359913e-05,-5.4328294626471446e-05
0.04955058126217012,-7.657025752086972e-05,-0.03398941871852473,1.5165181931831845e-05,-1.1526584176634849e-05,0.0019020978637572675,1.4849716806515467e-05,6.209426703421251e-05,-0.003365435542901528,-0.003435096406717921
-0.1987320428722491,0.046954127605195566,-0.18737573705587593,0.1301908648965814,-6.340832299729172e-06,-1.401101911060969e-05,0.4150081767773186,-1.4597004230640355e-05,4.812715259628415e-05,-1.1689103671604956e-05
0.13078673098017585,0.04661905123090231,-0.354752631436751,0.31691035481361457,-5.395796592038226e-05,0.08842802089612457,0.06448177463277237,0.002582513980527463,-0.07278160986061195,-0.09406803174061762
0.0324702885988577,0.16633861916939574,0.07069709019762109,9.869914931520721e-06,0.053150099860502426,-0.0008716726022029614,-3.2957919323176486e-06,0.16708627410777596,7.607835945153576e-06,-4.8829912940308435e-06
0.00018214942682930215,0.24947363038639905,0.09586389928283796,-4.1973840903890804e-05,-5.852230745056122e-06,1.0994160925285904e-05,2.322788809644179e-06,0.16019556151514894,2.6597689936648716e-05,2.0806704222509702e-07
-0.03672538723428931,0.3965206453752454,0.4067430094938304,0.01093483737874518,0.058657854350496266,0.0437647648945883,-2.9084151650378105e-06,-7.356101999895383e-06,-0.054689069643694105,0.05675331645761675
0.09991944599009912,0.06379873298398447,-0.000823998416171142,0.04212329864044173,6.969941142623737e-05,-0.0001323614806245327,0.00010390911661534371,0.13829357780141824,-0.00653663924453983,-0.00023613880046360628
-0.177373786674668,-0.026871593091000595,0.028100084132254087,7.378652545719088e-05,-0.00519347526596976,-3.983860317373605e-06,-0.03780662292441868,0.0001782573880153396,1.9653412047196703e-05,-0.0016171000879409072
2.021729083777226e-06,-0.09689055458041478,0.18783045707073032,0.10755272218004039,0.09758639183072997,0.0002237853115393482,-3.479604278863944e-05,7.667051516561664e-05,-0.0002523202473032635,2.2293494726411728e-05
-0.0697394293539664,-0.001174590470059836,-0.0010356562738550548,-0.0019316565977653098,-1.7958652672923363e-05,3.712941461485446e-05,-0.04843219979117618,3.7420702618149735e-05,2.1634090757422377e-05,-0.005738002336755491
0.5674244186020236,-0.08093051198651258,-0.07873778856599417,0.023649850529575158,-0.06381295593758383,0.06826762884979429,0.0003667258283041185,1.5064374044099191e-05,0.06292455216505176,0.027254575263855697
-0.039338138326707774,-0.00281205694088583,0.0012090493934990578,0.00026018537933463376,0.012824206535683873,8.528263161731455e-05,4.8031539000468275e-06,-2.859439569445555e-05,-0.03938904346461361,3.718184361018301e-05
-0.0005779652339024272,0.0634339666362714,0.03569228448604305,0.0015797351270293181,0.000118186397280817,-0.0002655156186616434,1.200397654791701e-05,0.11276067610558209,-2.4808699950355973e-05,-0.00017086162356117363
-0.00013301412614357563,0.13216542560051595,0.049376271239835214,3.711239124697334e-05,1.128768644939561e-05,-1.0462605279940887e-05,-4.139975310264786e-05,0.08135251247826891,1.7794542995643541e-06,2.5615408962281975e-06
0.05456864342448419,0.10039326599185261,0.031834114968413096,0.0005316476851706707,-2.9721959225960044e-05,-0.019937175298953395,0.00015881100706890714,0.0640297237352528,-0.0002815755994032847,-2.495934618299914e-05
-0.000770586597508377,0.0008790503928588969,0.030804820581278872,-0.003406031435883089,0.055533238447274896,-0.00021493068007409679,0.04798058103255091,0.04078821002854868,-0.0500735502042496,0.008530940748463868
-0.0006085296183195371,0.03471377702490204,0.03096020447535496,-1.6566760506170429e-06,0.0003488777310802539,-2.7121036051659046e-06,3.714496822124973e-05,0.043229390813159504,-0.0002115459633947316,4.854221554905146e-05
-0.027436304564968525,0.34896285185307335,0.018156593739570154,-0.04888841027395642,0.08956588759193954,0.00196704135276118,0.04357333325993211,-0.06656195580025069,-0.05806161774773616,3.7150720430523026e-05
-0.0328857942570095,0.02568351728627011,-0.08105311737855181,0.16596500663302086,-1.1250787417611936e-05,-4.9668845609164463e-05,-0.04451439857443425,3.277193758236746e-05,-3.8750231289602474e-05,9.528961295426416e-06
0.0008013332562520677,0.15603667636028373,0.096408236646529,0.00030413965277896547,8.481125729627614e-06,-8.269639331984094e-07,6.614349588794689e-06,0.07669982094940474,-0.054448766047445196,0.058530305709488105
0.020445523450705015,0.30966451885885515,0.12313650767829241,3.2311400733173285e-05,2.8660455612337355e-06,-7.372983675862735e-06,-8.755721384077016e-06,0.12629033193372163,8.775939143604714e-06,-4.6291534165956015e-06
-0.05436803592150083,-0.1498181655770274,0.3443248893813294,0.09279623946684122,-0.06386162875510983,-1.9267396900300034e-05,-2.1355154639153934e-05,4.378133171638854e-06,-0.04920557510821101,0.07814039302671251
-0.030056140942340707,-0.03453138097149699,0.034057948375599396,0.0390706971672305,0.10741748531243726,-9.217633470903648e-05,-4.0298039660845225e-05,2.6434521305683528e-05,-0.03708173139614632,-1.479394541478079e-05
0.40891433738531763,-0.03965070199470364,-0.06627065156592674,1.5147025678069415e-05,-0.04032245211843641,-0.3130642833764603,1.5583731899014017e-05,0.00021543071338689826,0.10232870508223178,0.11189571357325954
0.47033255598078944,-0.047352014458315876,-0.08122238486383006,7.670645585450598e-06,-0.050659938913376966,-0.33291474647176555,9.179251873490051e-06,1.8759917568958607e-05,0.1702887285928183,0.14971148689701178
-0.19903002167029277,0.01611592197125094,-0.11849557746464999,-0.12788243856237966,-3.6843483763486206e-05,1.0524488078008187e-05,0.15869263237453057,0.0012131190541016528,-0.00011419852783267951,-0.002206719909251298
0.0014725236182950908,-8.200226732277707e-05,-2.94475269592662e-05,-6.449647616683362e-05,-7.306811974716723e-05,-0.00013276282882968026,-6.932586907581143e-05,2.5386636399134034e-05,-2.959316887132841e-05,9.395331709406442e-06
-0.06963012842571613,2.7110160192841315e-05,-0.009616371415372305,0.0005599103485793662,-8.832105318223238e-06,-1.2970438314242609e-05,-0.05681005115851645,1.4208156233250053e-05,-2.7822657511818418e-05,8.549455100566743e-06
-0.02709474531889342,0.0002340451810752702,-0.029397196597225943,-0.00011202527828577417,6.63071700311827e-05,2.682664878124546e-05,-3.858030250972423e-05,-5.176068420031896e-06,-1.2790627422648607e-05,-2.2943058544918547e-06
-0.0004707633934004192,-0.000717762149148824,0.00010293374473229734,6.80006897243396e-05,-4.5099133481414225e-05,9.026859936223908e-05,-0.0018769798461523558,1.1333230346150275e-05,-0.00021254558496600594,-8.852309132961606e-06
-0.01064874479584244,-0.00015615368283244631,-6.6223509240185735e-06,0.003821799978321658,0.0001761819135838494,-2.4427070200621603e-06,-9.60916488464951e-05,-7.874572824218327e-06,1.4348071172323207e-05,1.4776057157306674e-05
-0.0015190615658948875,-0.0393701770140501,0.13699947617541947,8.296249717550535e-05,5.398169363518708e-05,2.214885615427199e-05,1.8627830134851427e-05,-5.9385975126731364e-05,-0.1485345911289119,0.20630728836120793
0.4981999464786777,-0.06285145436811297,-0.0561046490567043,0.0006745920808199549,0.20234717254971718,-0.04698016952003552,4.3640223144868254e-05,1.0482103317521563e-05,-0.10449090254629793,-0.08148644353968114
0.07442063166967788,-0.2637774495184376,0.5889667966743188,0.17586535420562013,0.20209141492013558,0.06341007044120746,3.865560335637756e-06,-3.5638080421182223e-06,0.015061816079871162,-0.0017102280764067688
-9.99885370198891e-05,0.0006059286951464354,0.027204496649449194,5.4145205365678474e-05,0.0003169740223738114,-1.4559343809359133e-05,-0.00021708867537885066,-0.0006131512946319322,7.647173305192956e-05,-4.255945300035289e-05
-0.009981166872691676,-3.347033470207374e-06,-0.00021791181940193185,8.385641768062666e-05,1.621647402430108e-06,-8.999935015325915e-06,0.00011367478853509117,0.00032208705882792407,-8.34809292188386e-05,-8.928705055864637e-05
0.0011818282826265097,0.34256062535142273,0.1342848387154441,-3.832358219701538e-05,5.483082707797523e-07,-1.1792975003775089e-05,-1.101788393953253e-06,0.30604130172110755,9.790949155718034e-06,8.417803703090801e-07
-1.4513195505553674e-05,0.21488119243680273,0.08148577829843265,0.018316044483332423,0.02322265445513778,-5.039462860805089e-06,-3.2696613304470327e-05,0.1877994616351775,4.254008469952148e-06,1.4628093838814617e-05
0.0004597880261642219,-8.279662335174142e-05,-0.03368786541497817,-0.004776068685471627,6.152893272865373e-07,0.001468976092289643,-5.774619914881611e-06,1.8609357496657905e-05,-0.001713746987974077,-0.03896347344664521
0.36501918740428924,0.13756283747904194,-0.08442074088764615,0.4614034840466459,0.14934151088478176,0.00039707495710481774,0.006503926152307541,0.04779530694457714,-0.03046623901950072,0.044091596822104076
7.108060557332044e-05,7.658633830636243e-05,-0.03551197361989335,0.026722792007468552,-9.131779012724502e-06,-0.0002449067813818359,0.02811966029526994,1.627534664151318e-05,-9.732605365844453e-06,-2.7740242035874194e-05
-0.03301276499434458,0.01496377358892509,-6.970057641735933e-05,-2.3299885849948827e-05,1.918002652733209e-05,1.595931265771363e-05,9.351515011509634e-05,0.028148384939300317,7.183440298755302e-06,-6.848532125611877e-06
-0.06278800297464902,0.0009133671256364187,0.023738590242685483,0.054861650462052367,1.7987181368771766e-05,-1.2557660061551584e-05,-4.72811591488327e-06,0.05015035641635684,-0.0024552147179954863,0.00017463390491593824
0.13417976705341783,0.05946194996515893,-0.00018945452891220007,0.06824011424765078,-3.1779528799606054e-05,0.0031101540338495156,-0.00013066672885649627,0.062446915586422284,-0.04877489653461279,-4.742477456373168e-07
-0.058722167963951695,-0.00033134333761044535,-0.00016707410267526772,7.41807405804113e-05,1.4683768931967393e-05,2.765337688072535e-06,-6.996425758706146e-05,4.108072164448685e-06,3.778233069165974e-05,-1.4110009986585239e-05
0.054716164796686284,-0.0004393070259996709,-0.0024959216842492826,-0.0019412216068003646,-1.4288490728795945e-05,-0.0028826863627376877,-7.083655575565994e-05,4.962369562340443e-06,-0.00028843439669345544,-0.0002562978767430867
-0.2925010116120342,2.7030586586534852e-05,-0.11727349106671857,-0.3864013998745641,-6.905559603235351e-05,-1.989065555751634e-05,-0.24815694821930434,0.0027927933352712244,0.0028098948948989673,-0.07437727913283272
-0.22108418852377867,0.1467744545612012,-0.3452952884452444,0.7784673483969013,-7.444964223108361e-06,-1.904979330053157e-05,-0.13489507411047855,-2.898808921743609e-06,-0.0001498216698448216,3.7478604396318407e-06
0.000519656145922094,-0.0001813373763429118,-0.004010878289938082,0.06279228305483692,0.008748940787930148,2.6509885195165824e-05,0.00012429616282690553,1.9558172758277774e-06,-0.00035416474286851846,-0.00025593808273342074
-0.2226152565482201,0.04796857629608592,-0.20721497597015356,0.11761727568358323,-1.983080806744828e-05,-9.673417560433714e-06,0.3170376250457171,-1.929893746886546e-05,-8.011968013824121e-06,-0.03595257586890787
-0.1863842820011125,0.006049948807560494,-0.12946711593133323,-0.08796647005336733,-4.094485765273008e-05,-1.3992635455512253e-05,0.09186028429991562,3.991801176671264e-06,-3.5859314329843834e-05,-0.05682152597890103
-0.02990966929700106,0.005823006079804417,-0.04123267059210673,-0.0007480128124060248,2.3663361637169484e-05,-8.569815730191657e-07,0.02851895083609825,0.03218590965451035,-0.03785594724354462,-0.0011275501544224357
0.06916071550481447,0.18539231249262658,-0.14408244217910793,0.18872542757300645,0.0007602541659951917,4.993765911700919e-06,0.017393175845310558,0.11255342411817239,-0.10032071438405922,-0.05246017404071876
-0.07525411465337556,-0.24517396153547474,0.6111430776200948,0.17948462123217446,0.023304449833923126,-4.0127945219180857e-05,1.7524929587114787e-05,-3.4280431126263565e-05,7.824580372173997e-06,0.08414425260325059
-0.28495696208236054,0.0010467529975845026,-0.14552997183999022,-0.41433253527423264,-3.4652553998068983e-05,-4.332946650416398e-06,-0.2389622393729485,0.0288103192492121,6.504742314735801e-06,-0.04526657063900124
-0.15224436613339362,-3.6764277448657184e-05,-0.0848924724341029,0.0004829889044719314,0.04554105820611057,-0.0006984032459818361,7.730460211223768e-05,6.108190317526051e-05,-0.029917503091726975,-9.144015430270083e-06
-0.19443262042594234,0.0008288062509201908,-0.16667327279158345,0.01347989496626653,-0.0009643800012786014,7.0824041830037115e-06,0.33328523809530086,1.98337452034678e-05,-0.04969589921079504,-0.04014107900232474
-0.09284931393069436,0.02896755305509606,-0.08880192346029554,0.06853168498165604,4.314400077507194e-06,8.279483691848472e-05,-7.9403088707024e-05,0.0001311388792066066,2.466096102051895e-05,9.230097737572582e-06
-0.11862709059670702,-0.0001975105768602938,-0.04586606104651577,0.0001395223105646998,0.004687805303678683,-1.3969183376731944e-05,0.0012050321681896957,0.00014709753193803732,-0.0016632476679584475,-9.201266171611674e-06
-0.15446347344179664,-0.0014102570454544844,-0.02117995554566718,-0.0361726721928032,0.004554791291155686,-4.348306949836448e-06,0.0017937149790947667,8.216896305913764e-05,-0.0009849696316795071,-6.353212395022495e-06
-0.11630359961202189,-0.0003553821987745609,-0.03183871938598544,0.00041221734646423484,0.0008992507911739412,-2.5814433247527633e-05,0.004891299635388809,3.336351609509536e-05,-0.006037183595631339,2.7788589338695685e-06
-0.34300233486374015,0.09851865212239053,-0.3177339916983852,0.20013322680583656,-9.112325850852538e-06,-2.690795960452848e-05,-9.327477367068524e-05,0.0001959612651505908,-8.248012606214313e-05,-0.016801956597661306
-0.06031017677281985,-0.21123364749819162,0.5074091409714822,0.15762695952864486,0.01407336090421709,3.729236345184932e-05,-2.1489156713942194e-06,6.222818873149287e-06,0.058440551398951386,-0.07061292782111533
-0.1110230773601856,0.038694843974540906,-0.11518496639780652,0.17504251013947167,0.13331175220468985,6.6955649562531835e-06,0.16164947443968203,3.8162358281041104e-06,-3.315784969657983e-05,-1.788935292230479e-05
-0.13537409856263624,0.07394289006057592,-0.19218899092245637,0.39816971768828824,1.4265892675289277e-05,-2.365472982359655e-05,0.021274293925220514,3.2277417254883468e-06,0.0002174705099290348,0.0005983270646879235
-0.0038443836793351288,0.08411123534759754,0.030655607150351427,0.00013159044085186343,-1.0541058294687894e-05,4.962885145507982e-06,-1.9459730002857893e-06,0.11927859907470872,-8.100431220019501e-07,8.499149300751421e-08
-0.259264789128745,0.16399785301195421,0.12935582792846828,-0.09708152754165351,-0.05662750913556364,-2.9844245437319703e-05,9.011891145074381e-05,0.10710131355280637,0.055464416767652035,-0.10777649971080247
-0.05834216306468733,0.12515471635440245,0.0001131066988086668,-0.0823196819751923,-3.484226685772614e-05,-0.0004808581800149444,-0.054516360831344424,0.07125741793688142,0.00015125574893149507,-0.050538570002642766
-0.0500391251640162,0.00015264872855159093,-0.03088420828425294,-0.023966072830520182,-4.568561469040908e-06,-8.62779369735496e-06,9.362365981398402e-06,-7.64892796331748e-06,-9.667672026253272e-06,-0.0016198341219176697
0.18863251014239518,0.41491867542354494,0.03570001861347032,-0.08297351433536097,-0.0008179934041557469,0.00018468643947632085,-0.00023114374543217452,0.056601672301995025,-3.1333235865090985e-06,0.0034818601756807536
0.13135485182613604,0.2755464807348444,-0.014425049399099351,0.1267483697581139,-1.418542216637224e-05,-0.07807829265000096,1.3549177172736567e-05,0.10066632604549926,-0.04704266326561418,-0.00010389909613328828
-0.0005053925334955151,0.0007613547506602386,-0.04559079620989325,0.08095974188928107,0.0005546714233636793,3.717030116853604e-05,-0.0013419859016674783,2.899814727217907e-05,-0.012730449738959813,-3.5581610459294575e-05
0.4219818200964154,-0.04539425473841918,-0.0888242813469544,-5.3337551106499704e-05,-0.01855043721966951,-0.04354246704183938,8.271403504043549e-06,6.2874063525267794e-06,-0.134369654561106,-0.13440858970380254
-0.03467368829014502,0.0008784759405317313,0.0014152699334375066,0.00014610771938445717,0.0004712018207726596,0.00017738254982084504,-7.14160515469273e-05,0.012512967631617595,-7.514158054655433e-06,-4.430971589105284e-05
-0.285511120118422,0.053265832403086355,-0.23137457343538947,0.1704002022282432,1.13364729096436e-05,-1.0767695432511442e-05,0.07783437332220222,0.00017344230323341212,9.095332889886877e-06,-6.756314752557e-05
-0.0655656874460306,-0.05146483050277304,0.11518408771977431,-0.02981919536374709,-0.0016346772576392664,5.067381798289244e-07,-0.048784220081300865,1.4557132688738064e-05,5.536640807867336e-05,-2.2143737946885094e-06
0.0014690715063637757,0.03777448695211733,-0.0017757451010685429,-0.0007367220087284381,0.0001015284143334548,-1.1504137401837326e-05,-1.747556250054196e-05,0.04781086153411021,-0.00017458323185513456,-0.0002716020843676231
0.2210860037879047,0.2660451585713197,0.026862322331607014,0.1556836403465544,0.028524296347986897,0.08890713809270691,-0.01870286214153532,0.0982393073615318,-0.04496373991273316,0.00039301017815560676
-0.17912986427438984,-0.18723803626183425,0.2528304439991701,0.00015331104057873124,-0.06500829161628986,-0.07862173169831892,0.15764912415905724,0.0001288094924065712,0.11999968393414019,-0.10635278204794246
-0.0013020915391311265,0.00018999561659207998,-5.6549714725264084e-05,0.08159905654127177,-0.0007122009372766495,5.4146350357184806e-05,0.07664014435653159,0.00018023172144182988,-0.00011852831699557188,-1.9665651202835436e-05
0.5713220611098812,-0.039906862013755616,-0.08226164321725957,0.304884903645645,0.05041913601929469,0.060381346730919855,-0.06897324519703678,0.038750308757585276,-0.0001210725088015117,-0.049528110169620734
0.20339324700215564,-0.0486793706185008,-0.11903238627999382,-3.810834986301622e-05,-0.041639087214755476,0.0005508247297968883,2.294204132282212e-06,4.314735098291254e-05,-0.11083524352693111,-0.06511646970882182
0.0011634022945012459,-0.0007882655695324159,-0.00023670400463088212,9.533154315775496e-05,1.2326237910979565e-06,0.038739048890636146,1.4567975858123627e-05,2.879370997726983e-05,2.5113747833531466e-06,-2.8639059143690415e-05
0.04924996764705836,0.08653331984325127,-7.917182403045444e-05,-0.062203639711103764,0.00015603493715651558,-8.674991327421844e-05,-1.7107578401305703e-05,0.06500482942932023,-0.018060671768961613,-0.00011086416221302256
0.5843862891201296,-0.05673966018086747,-0.11042871995486442,-6.9713043588067874e-06,-1.8602258512103582e-05,-0.13441163925996474,1.623319985405315e-05,7.943471429494876e-06,5.7197235342128856e-05,-5.432694329630814e-05
-0.10020786027750653,0.011819682841082191,-0.0969803313763845,0.0629014609707021,1.851339813362672e-05,-2.4025401222766902e-05,0.5286881271393125,-4.569386094799437e-05,0.05655179892846615,0.03307475481292735
0.5612766682249218,-0.1058671305710631,-0.00011800445230897039,0.0019853659036137973,-0.050091697225090055,-0.20140602334236815,-2.4216496127339352e-05,-3.6781562721857666e-06,0.09133217999383572,0.07173893377768752
-0.04335783770829761,-0.17586123426606948,0.44081537584581765,0.10840141565385895,0.17131518725527023,-2.0127798209396873e-05,-8.331906133019317e-06,6.194219759541667e-05,-0.08112512895079732,0.18704467293109217
-0.024817006604344116,-0.072226616614473,0.16879769187822752,0.061275293430209085,-0.04293361465533067,7.891553917039963e-06,3.7515664117947826e-05,2.463744740824913e-05,0.054563921897816045,-0.04318623865629926
-0.028498965029978514,-0.07062920925450794,0.17534946303648485,0.06503488982992389,-0.04048944652606195,5.3530949335518655e-06,-6.351946459527688e-07,1.7475958625896384e-05,0.07316327286076184,-0.06870335579439452
0.04799244109606331,-0.0006838789657185598,-0.00011623252591408005,0.13440138510221722,0.06973392275169944,3.6626992954356076e-06,-6.190549753927983e-05,1.4237366584443617e-05,0.001512992156946275,8.892556250140824e-05
0.030759042853624314,2.8387520122109987e-06,0.05755973717849232,-2.0924728134409465e-05,0.5608239343427975,-0.0008829766617332172,1.4250446282232917e-05,-2.710748020471129e-07,0.00014457099133284945,-0.00037871968402476946
-0.07455700818737303,0.18005899198618244,0.17516439904510128,-0.000554712234506703,-2.0676524447125017e-05,9.922475925045174e-07,-0.00035134452082686283,0.08762074797792241,-0.002586121961699088,0.000941513464453098
-0.01458063001108007,-0.06872302555985879,0.10989654311950084,0.0048232045227396885,0.001051091868602251,0.001023919291642411,-9.376429875060422e-05,0.0002025725273220671,-0.050823666046017894,0.0004732103780931718
-0.19356292162775512,0.05961168673646185,-0.12026122057566224,-0.10441246865446364,-2.3751604378037946e-05,-7.0955040412233785e-06,-0.030314679239623752,0.00752297218736116,0.00047971634671770553,-0.004306188284674623
-0.01759214709213846,0.09052052206838562,0.06381050317843484,0.00023662264081927405,-1.6965499125410566e-05,-1.3820270911810273e-05,2.3041900596570255e-05,0.0007328306184225771,-0.00010501422721809725,-5.930601005206988e-07
-0.03012474886184073,0.03885562836353627,0.043499031686298116,-0.0011161485404199173,-0.00011365190408518009,-3.0349691033598552e-05,-0.01324444628153336,0.001811684098145576,2.7420739562489836e-06,-7.083940600978752e-05
-0.07423330273437455,0.03622667882088398,0.04008304210267852,-0.11239304356792855,-0.003458548654625892,-0.0011687004300619144,-0.1286454261643879,0.10963700394864417,0.01363445675336711,-0.04426918662061953
-0.0296668699428026,-8.790057371147307e-05,-0.005127318148483379,-3.946764463040653e-05,2.4160155754155934e-06,-1.8242275352946582e-05,-6.9170845816947e-05,7.686719550373663e-05,-0.08244122553138829,0.002286564868490979
-0.052592438914582026,-9.113835084324858e-05,-0.10910156273247884,-0.17839847437215642,-0.00013103112729875014,0.003978899137933979,-0.057429225467526046,0.00013285594840510383,-1.4376869272143129e-05,-0.05296434256300473
-0.1120432176000882,-0.04383729620878009,0.07458856298578696,-0.0684844374117358,-0.0003323593996991286,-1.2301831045777799e-05,-0.07775540652346953,8.833503201296265e-05,-0.04948703961028082,0.011521637003974478
-0.0790503693726266,-0.03478447301915307,0.056647313419355805,-0.05774392839051784,-0.00013042218291184072,-1.530184041421059e-05,-0.0702069208253865,2.085845815844389e-05,-0.039150693663566216,0.0005591444762219857
0.11734868990375848,0.16503077459761187,0.00033706884888055986,0.11772570194486437,0.08008288406989582,0.006412379986678913,-0.0003976669585365806,-4.3636594978189675e-05,3.341394872605539e-05,0.00029262720328897225
-0.16050843421709637,0.00819608535727992,-0.11639598694360781,-0.04213262891629928,4.088171066486213e-06,-1.2548240640564793e-05,0.05497135068245915,3.780706494615843e-05,-9.245754624044868e-05,-3.36372233356646e-05
-0.03212803759300038,0.08209919583662723,8.370773911101023e-05,-1.1974799425711824e-05,2.950097566558999e-05,-1.261589171699467e-06,0.0012074964593712246,0.14146495831089936,-4.2194879662367455e-06,2.7424082014602563e-06
0.0018296488575375205,0.19444338238885134,0.07822586921870361,3.628800993233914e-06,2.2869159470299607e-05,-7.317198371653403e-06,-6.6153395529649945e-06,0.12938600447790458,2.4201926143486598e-06,-1.4068125038538934e-05
0.1526013897281416,0.2685419027958787,0.04749053393684789,-0.10892250926403771,-7.997222875960386e-05,-0.15420036619654276,-0.0587642627043319,0.08309815132003558,0.03766175442607491,0.00345618932208633
0.017307890055485442,0.4871389753401973,0.22763412299897043,-3.620033572442202e-05,3.5003892785313136e-05,-4.462391170814984e-06,1.28757217285412e-05,0.27821634324186134,-0.027771833343515254,0.04670751995410025
-0.001668548360282468,0.06683116619812268,0.029816090077912083,0.00027374284942187176,-1.723980422140092e-05,3.976783798130904e-06,-0.000421114486050775,0.06908351541396231,7.415556804945787e-07,3.61848413737174e-06
0.06109036067231236,-0.010867554650057771,-0.1515085596044589,-0.08856017985140573,0.0001027043123422488,-0.00030705556189542665,-0.00121139768017517,0.0004801832191737249,-0.06911514630982611,-0.0574775364912005
-0.24273452523778358,0.0696323185901246,-0.23327496627302646,0.18745580592813887,3.323240401047329e-05,-1.6564679842641126e-05,0.063729333540219,3.717246750719182e-05,4.2100909827739576e-05,-4.789984940992344e-05
0.06713646229748765,0.784756862252388,0.3215522911756968,-7.047359824496089e-06,-1.6540105088282394e-06,4.080353835299493e-06,-4.97754630246936e-07,-0.12579617984476513,2.7706138100137284e-06,3.4689234531416414e-07
-0.001792558792381268,8.234372673910807e-05,-0.05003183269602406,-0.08449757324795273,-9.267470927180215e-06,-4.0125670056648885e-05,-0.000546136870713636,0.0002861881066688767,0.0001594123598269745,-3.8389554032000143e-07
-0.030586488041473885,-0.0001275167920834818,-0.0003730910286801963,7.873482239779043e-05,0.007678120665987833,7.180946813814076e-05,1.7885655133899925e-05,1.622356484732329e-05,9.412377591702641e-06,-0.009144050893108728
-0.06783591971813233,0.009250191534761542,-0.006861304239952145,-9.663854800451876e-05,0.11069617306076601,0.041370912725994566,-0.01963824032329403,0.03397989025034707,-0.00014680403939836207,-0.0023560218034054527
-0.2191183682750203,0.0044970459925478224,-0.12893447907962474,-0.2463229547143278,1.0181518593746132e-05,-7.330427858738057e-07,0.059447529167470134,0.009853496725272403,-0.0003130851537276618,-0.0040989641577577375
-0.0728152119355317,5.879859797137522e-05,-0.045523550861698424,-0.09144399526170947,8.1570631442737e-06,1.1075619629292347e-05,-0.0007256187430328151,0.00022810034237212074,-0.03188100346391329,-0.0001347220818862223
-0.023830793815242373,-0.12353277376543333,0.28049304168279215,0.07352781832812902,-0.04249543805524197,5.787523766800898e-06,1.094340039394864e-06,4.532324678175903e-07,-0.07766863144055153,0.12058880940047016
-0.0006968483896027792,-5.913215892899978e-05,-0.003346648240005848,0.055468330939962604,-7.076441222350824e-06,-2.5633513221270254e-05,-0.0013536747653777005,1.893512670918956e-05,-4.296231105184822e-05,0.0001351447767615857
-0.13520713514980232,0.03572243080244921,-0.12322085480182247,0.21041326060202944,0.00012334758445342413,-8.10029117224727e-06,0.17193649676423287,1.4183533859167361e-05,0.00046254819646704225,-6.245384277496035e-05
-0.00031969470118306764,-0.000747485825074156,0.025644743176042945,0.042086111017963855,1.9998510034680635e-05,0.0016772566838364577,1.503488071515191e-05,0.046382904706768556,-0.000742079934478948,1.0324078684322228e-05
0.04468602576314319,0.3279445736093611,0.12622829432185698,0.00010226013222141483,-3.5374759982528016e-06,-0.00030615737053988604,-1.3437755110322905e-05,-0.020591154982909705,-1.3338875283791761e-06,-2.3615899930412193e-05
0.03875179519838813,0.0652055242304485,0.02611937462485217,5.9095896385289365e-06,-4.539048461777981e-06,2.8571747609090026e-06,1.0025238618727012e-06,1.2851036740840579e-05,-0.010062829132364387,-0.0003287644424879436
0.017549434149059375,0.2180434431394873,0.02870778701037364,0.045202676002533394,-0.001305977617966334,0.06834571823280856,0.00022094614150519222,0.15774039153259295,-0.005725060111918412,4.87459252023441e-05
0.6146237485788839,-0.05088236587457297,-0.12257459867511418,-2.2130104854964094e-05,-0.057448156948729845,-0.040785549059306425,1.4081667284835785e-05,1.478188058102451e-06,0.11301263947823344,0.07693726349775029
0.049605175091472845,0.06432663772056846,0.0001737932203906905,1.3409233381326219e-05,-4.689666584389505e-05,9.978871280792912e-05,-1.5552790830057354e-05,0.07145196562176703,-3.9701240834080283e-05,0.00012194131349002748
6.317763143215057e-05,0.22323790301538377,0.0944676098857279,-3.9308216347206924e-05,-2.6005534500625796e-05,8.006162814838345e-06,-9.783054398656174e-06,0.18223112611618408,2.0589410840673275e-05,-6.325314263960188e-06
-0.058091031805292376,-0.044155902814712454,0.10046810796327832,-0.0007663170080038657,0.10900446350040202,-1.0912641420242213e-06,-0.0002914271378586501,8.341113199046918e-06,0.05529085128644128,-0.047858806618927954
-0.07265224797684564,0.4620957075970186,0.0947610642725391,-0.06509533074888778,-0.03812234006396298,0.00017161768626297572,3.345418515863694e-05,0.007243729036475892,-8.301222846066236e-05,0.060383867580694174
0.00024167446162405665,0.1319562693650791,0.053588348004251864,-9.167665660718545e-06,-2.694640420053513e-06,-2.1820185178041292e-06,2.88501428984362e-06,0.06054779106768283,1.2715671956614072e-05,-3.3888495832664075e-07
-0.0906072211763165,-2.5769234222499275e-05,-0.002467539052749756,-0.011283698486003618,-1.5377621850563696e-05,-1.314949076481261e-05,2.903869563676443e-05,0.0003803200390666051,-0.031656811556564704,0.017892492187975718
0.059378331797014725,-0.022121759474041037,-0.02016803331822239,0.04712633866154827,0.0685900477629878,-2.50932394780296e-05,-0.0008841145366559581,2.7591156102343512e-05,-0.0001481107765260049,-0.0011391286316084276
-0.053657033684063986,0.12810871675353294,0.035456507756412854,0.04637016312867088,-3.044913481575985e-05,-1.861593868025975e-05,-0.08259978871364362,0.0697870121881178,0.0002590406870817627,-0.0008524872241910695
-0.0928283104828562,-0.08546667867628718,0.2153329798741096,-0.0282560148016473,0.5348195334955596,-9.143232974884907e-06,7.403142588724085e-05,4.1077366950944555e-06,-0.008318236464784771,0.06351870048994006
-0.10286407024002307,0.0690322510477991,-0.16555429610944558,0.3880810999429021,-7.629133009462813e-06,-5.743392226741879e-06,-0.14133747153111015,1.087620080320361e-05,9.069072257150443e-07,1.1480335179144609e-05
-0.03571959446337715,-0.00042508119727502325,0.00020121250644272493,-0.00033357690997695027,-3.486272235360228e-05,-1.9479920586014108e-05,-3.743772751564584e-05,0.0002517473330395638,1.2712698980933539e-05,-0.004350661559023043
-0.047601690712760554,-0.0002141636303949301,-0.019539071093094273,7.648726546333696e-05,3.757756433112722e-06,8.761888060728359e-05,0.03950347998391046,-1.041390034363711e-05,-0.00023456683345593363,-8.533169858895933e-05
-0.4416981867601202,0.0728465544861038,-0.3434134658778091,0.1676929464226858,0.09147140935737436,0.0002869949557080589,0.10122847015536553,0.001997646232566181,-0.05800778664521551,-0.08815111606208592
-0.07957090583331598,0.011613352425534311,-0.08872549268926788,0.0922724697024205,-3.1174333951529895e-06,-1.6560843383499056e-05,0.20809618651768846,5.363462458245423e-06,0.0005108756054804417,8.546712528133447e-05
-0.002152006982215279,0.0028196804417543373,-7.437395828376423e-05,-0.014543806631368485,-6.658655622163817e-06,-1.1740358128803501e-05,-4.0432436849447155e-05,-1.7742917227638238e-06,-4.260723553812151e-05,-7.40077282417279e-05
-0.042938258490125586,0.19512356882835183,-0.0011729662174275516,0.1782820241993269,2.044085660885425e-06,-2.2144408469826934e-07,-0.11161825161810512,0.05548628624894202,2.350873862166187e-06,6.714916268345134e-06
0.062321222351889694,0.12637375439485515,-0.09944011155307517,0.1707001334648571,0.04493654272417704,0.05103026758348497,-0.11828038011571317,0.12866584599588482,-7.721837935213113e-05,-8.554618909866384e-05
-0.025058971369636987,0.001107862329149472,-0.05533635303015344,0.17115675648331644,2.7463612823325873e-05,3.6833924433069534e-05,-0.08437336886845659,2.6167590242106417e-05,1.4410931651216771e-05,-5.2789075015210886e-05
-0.23262050403164597,8.631214724823705e-05,-0.10570793926168351,-0.3083504764795213,-1.8519754359508494e-05,-1.4229051903325862e-05,-0.16672029168202449,0.004759547835327102,-0.0007677640445142519,-0.04700698263455062
-0.05942380510905615,0.00028196580974092586,-0.04374337299316608,-0.017195589445499433,3.238371968925829e-08,7.1508544208200954e-06,0.04663241172834885,3.3455141576251005e-05,-0.032182521150411106,-0.00028326494247762484
-0.0006561667968690227,-0.0018728863687059844,0.009627766433386477,0.003077828561777444,-1.8694364936244657e-06,-5.55522346465018e-05,-1.2890750475119993e-06,8.944529306820878e-07,-2.2991507787983205e-05,1.2816021639325525e-05
-0.03969905209629788,3.748477874789702e-05,-0.025737675293753186,-0.03544850778238024,-6.647846061789202e-06,-9.46413393172078e-07,-4.5521501830901656e-05,1.5282812058469446e-05,-6.84195776418268e-06,-1.385430602844755e-05
1.174198853806047e-05,-0.005295745878266781,-0.01756433276992891,0.0507266122624545,2.310119807027263e-05,0.007970358843223092,-0.00018612508714668398,5.9798486303113846e-05,-0.0002184003726961441,2.7859538682346985e-06
0.1311862956275851,0.21950517635319167,0.04038235655668851,0.07759657585553209,0.000430444478373761,8.499468606822035e-07,4.5358020535415316e-05,0.10088606252657069,-0.00024366847069373513,-1.646334130564969e-05
-0.05501140648227174,0.07343516996858238,-0.004514997792131054,0.12416432527142582,-6.798026907042094e-05,-5.554463833492975e-06,1.5752383988424079e-06,0.16339541417123146,5.122586200227025e-05,3.0804643794748914e-05
0.02998917608528992,0.5823450170061011,0.23839227950170513,-0.00015797761714892206,-3.523922174191169e-07,-4.345631865592262e-06,-8.32789297298391e-06,0.2368783469744321,7.969317689686169e-05,8.3065941054753e-06
-0.059432520670831504,0.00039970229892604656,-0.0689401594670344,0.07391287967488483,0.00014748820861333904,-9.588190443568245e-05,0.17185904459135645,-8.274529995947876e-07,0.0001080129927057194,0.00021845089241986177
0.07407488548858952,0.08661347556441006,-0.0012453188956340871,0.007951305385493804,8.014314526460294e-05,-0.07296545736313562,-2.362419277546614e-05,0.10133078313837793,-0.060592932550644636,-0.030631417165610318
-0.04977870670898906,0.0007191813344038525,-0.03718101404110482,-0.050203449216216854,-1.1988951758934988e-05,-1.0488845800514347e-05,-2.8370602092781568e-05,2.857342395859026e-05,1.152190207933003e-05,-4.2982405501579597e-05
-0.006008954301424794,-0.0533374120273468,0.12586639418896348,0.038829629126171196,0.008949582886426827,6.940442269680296e-06,-1.3577334568396739e-06,8.967921466523436e-07,4.011862279444152e-06,2.445687463025847e-05
-0.03794832253049259,-0.03415315188424651,-0.03614873174924761,-0.0041492063923045715,0.0008648418086663851,-0.0021153476348121014,3.613960888074728e-05,0.0001349866354127624,-0.05518934025156917,-0.037076767142996195
-0.1579147407008207,0.06890988226978163,-0.20911424606111204,0.3660044989920719,-2.0017904181023356e-05,-1.5365375974537757e-05,0.21943167341028158,-8.782538696392114e-06,-1.7368539862079154e-05,1.7602463149294037e-06
-0.12789888242357889,0.0686443047645181,-0.24559191685537932,0.4745878252619745,0.0005513675949427125,0.00017533614495322214,0.0399954369142519,8.71067690581337e-06,-0.029381028312141826,-0.0004529350690316709
-0.06383226644929717,-0.15290242284041972,0.33914524668493606,0.0720115143600821,-0.05542796825160023,-3.2378574288881203e-07,3.389857518415496e-05,2.6455090138804874e-05,-0.12327728353055263,0.2122048058052981
-0.04589225456118144,0.0016440502357063704,-0.005059455706200342,-0.064243803191204,-4.651028286634743e-06,1.9601247401744457e-05,4.758249429405654e-05,0.00781771314364888,-0.022830190552613355,-3.347794127889393e-05
0.13613893319672205,0.3726095358042228,0.13323068500807253,-0.00010002935740947622,-0.00014447546013375516,-0.07721763583247476,-4.0027270534996686e-06,0.11268268034322264,0.042874879140748466,0.03052580270666511
0.33695336688968497,0.03416383979947325,-0.252318179429434,0.37702303703581436,-0.024356489810277927,0.16236868714257954,-0.1715663072448704,-2.6670731234769696e-05,-8.47836401817644e-05,-0.040740685988741226
-0.1232539442660909,-0.0749555239145743,-0.09518958221924902,-0.02144673686098081,6.082734810266773e-05,0.11435001044616708,1.275277244892275e-05,0.04494668381675465,-5.4913211679716643e-05,5.0870247553464455e-05
0.051443769742384494,0.08383959058114362,-0.0035322196538841197,0.05519433106463869,0.2674417154818575,0.08159798113959084,-0.003910140421600434,0.04449571116876405,4.701563215155856e-05,-6.641294304599684e-06
0.0007358925294486459,2.454544331649889e-05,-0.007747056587803128,0.0005021386680183094,1.4438184650685084e-05,5.632528634076109e-05,-0.0007822725377808538,-6.738212368997851e-06,-0.00025836723693888053,1.8801662575127747e-05
0.020629809728777402,0.3240975698744758,0.127478983728053,-1.9286164101792262e-05,-1.5400832582048614e-05,1.4749500529013436e-06,8.881560749697981e-06,0.10782328324159632,-4.202729408068576e-05,-4.813794477131318e-05
-0.0723788843105166,0.0008621525523240727,-0.06712494810622195,0.06057186780582162,-7.152535095988833e-06,-4.12164073479612e-06,0.3154308129011444,-4.4062963936353675e-06,2.7584729803048572e-05,2.8913206453547037e-05
-0.04256223869801215,4.246460715255246e-06,-0.022684965666194906,-0.08235253840627435,-9.22898408699988e-06,-1.6735683395564786e-05,-0.054597789280638416,1.9530448731725485e-05,-1.7459358573656644e-05,-3.2828227719623e-05
0.25897212742850534,0.02965605817521471,-0.13493390441036024,0.09981641088629593,-1.2773870216661298e-05,5.685291468922196e-05,7.141550172282658e-06,0.001839265047469197,0.00014961960505843622,0.04348629700806853
0.0042339730544635685,0.06249386839316931,0.0008812460454812031,-7.914066523451121e-05,6.500849837926586e-05,8.523665897305162e-05,-0.00044821100090857157,0.009421704778205874,-0.03751166252948224,-0.0008151829592550709
4.1948238928449764e-05,0.16955582414899414,0.0011933186848175192,0.06007865206136832,0.05405639133516946,0.0779653757839326,0.006436544547600565,-0.04377566714159005,-0.005033311539693326,-8.403343973634949e-05
-0.040687999198659425,-0.00015584619786040328,-0.004612044351809924,8.388933900146851e-05,1.096275812065249e-05,4.095467988204482e-05,0.00025958730631688514,1.3138256317707128e-05,-1.4854114278088898e-05,-0.00010449796275242237
-0.0018339784618810384,0.11013562963191273,0.15583974446573542,0.0013705768877219995,-7.901241181213341e-05,0.0001341542233597863,-2.1499506144959e-06,0.2711332266280453,-0.00022435114992018154,0.04147738392790034
0.03506004564972254,0.15457261213350434,0.04582138295918383,0.052672526512516055,-0.0003603165102263679,5.497228103228033e-05,-0.0008487277630300442,0.047137600607572445,-0.008312039566756288,1.0038915171494587e-05
-0.12026552407942849,0.005049691927616691,-0.10783173768741354,0.14860947544235664,3.7225157171381003e-06,3.589256396047443e-05,1.408306164133907e-05,3.237535796960835e-07,-0.023357701876212923,-1.7029087261522585e-05
-0.1356599219668049,0.0028721854310988547,-0.13851022794164175,-0.09800091597661002,1.1851662583632578e-05,8.194240514124563e-06,0.06287139150069287,0.0003349801535672517,-5.154909739708401e-05,-0.0009748610985776974
-0.007684269509832422,-6.067605687365433e-05,-0.0017765582846143982,7.21524927262712e-05,9.620060053177282e-05,1.889813793100386e-06,3.7436365272767124e-05,1.7468653586661724e-07,-1.767080914775813e-05,-0.0001017542686590446
0.14044823604887235,5.355855119760052e-05,-0.08621162546401014,-0.0002649076767306061,0.02462775942236082,0.1432016683421817,0.024892068798708717,0.000746435616143624,-0.033819255343664055,-0.043578613049524706
0.6233347552964627,-0.08900314142844112,-0.14546111994527544,-0.02031245062739526,-0.021793477025070583,-0.05387210785111078,-0.0002039300175648924,3.4392342464950785e-05,-5.27211465610862e-06,0.057710679696785484
0.06459341374975361,0.008539576879612069,-0.03231100198048253,0.0006452739140979394,0.00016628038372207797,-0.04873757349048485,0.00011693242545754029,0.006479719672294704,5.525562868347869e-05,3.1520494128037495e-05
-0.00014503373388029711,-0.04174252181679571,0.17332685799301387,0.031853670973714714,0.6463598592419223,2.7602621533474736e-05,6.546248589222329e-06,-1.4135675522587249e-05,0.057084763074921434,-0.05123035395931168
-0.18199310481595735,-5.185934815208083e-05,-0.07783707699856084,-0.23741827747190938,-2.0269538444747067e-05,-0.000525047279423307,-0.248420821650191,0.00017822781208768327,0.00036494953277735635,-0.04747014456010034
0.0020414579426062287,3.062806054141589e-05,-0.003148263993128085,-5.057444723454947e-05,-2.342778903243124e-05,-0.00012755327597589972,-1.5241977491517706e-05,-3.765476766176719e-05,1.5450569889686304e-05,3.1214950825311666e-06
0.1426395437349543,0.09598812008194842,-0.03150967106186004,-0.04783997830197025,0.03421056681980036,-0.08493599178157563,0.0416516853085545,0.18067731833165943,-0.04205467078146263,-0.007643118100072462
0.18016543496753168,0.029230434492302983,-0.0007186448778747364,-3.858567859376179e-05,-6.88316414408899e-05,-0.06491471025227742,7.187967952902269e-06,0.06426725879814152,-0.000924237693545127,-0.0010445314289993803
0.16707116519912782,0.029656584546562243,7.127765248937978e-05,-2.339141390876415e-05,0.010946774538829944,0.12066535276560103,-9.05603358118028e-06,0.07604968190318785,0.0001621801097778678,-0.002432558828552785
0.023895318218070425,0.2794243429180917,0.11341265909799801,-6.730335850321775e-06,-5.0413552695008124e-06,-2.3881849181013153e-05,-3.335462827974898e-06,-0.0019106947907967437,5.442161643395942e-06,6.388392013700573e-06
-0.052684798419163285,-0.002508741203076634,-0.00022601805217978857,-1.4424622640259851e-05,0.02005712964495508,5.46449109919052e-05,0.0001607288689965958,4.4405107099294554e-05,-0.0014011169352544399,0.00075043822746857
0.4318422857917724,-0.054774644851120026,-0.13515998195940085,-0.09873306829495321,0.05560359950071391,0.192230102259199,-0.0012258141952738455,0.00027670412267875074,0.05040033694510656,5.036762486217939e-05
-0.14267102167687615,0.0001812242913462017,-0.08009774386167166,0.14940304284792918,0.007493126908432276,9.128805349181086e-05,0.1087593024578266,0.00011401035602548389,0.00023170386592266578,-0.0002544107545111918
-0.11121174592558151,-0.0506437940079145,0.16608995497779547,-0.00778895574271319,-0.004490368793038886,0.0003764161510662389,-0.0010984996709178423,0.0006573071936362164,-1.380884227853685e-06,0.00024727212725065916
-0.05119319377134346,-0.15558329139451166,0.2970827251590098,0.08786740524529969,-0.06408269307105598,0.06958332115999867,-0.00026560473568135363,0.00010234544438779713,-0.012268129091769244,0.05931781159129202
-0.11593532437423862,-0.0011842850186885255,-0.0008027850609953793,0.0712989066410317,-5.195473878813748e-05,4.6691916023183566e-05,8.645953018203275e-05,7.374045711444629e-05,-5.799256417515435e-05,-0.0007541033534927344
-0.27247526763193064,0.013972942699901719,-0.16860746607397514,-0.27359415459126624,-1.080923932363715e-05,-8.667723680226001e-06,5.3894593427423706e-05,0.0014830845702383587,-0.00036226763299187945,-0.05049975318530843
-0.272157722961077,0.0600258849556903,-0.20847063270717375,-0.0034621030566436223,-4.814179784191819e-06,-1.5098827181882984e-05,0.09607554303264025,3.164594176191026e-05,-1.812623038494093e-05,-0.00013569689904485203
-0.05920142129659542,-0.13621275860333287,0.3246485838311859,0.10946851974626208,-0.07641358256807919,-1.20999668616296e-05,-2.7784174401671517e-05,1.1786754285604891e-05,0.12174176443976813,-0.12446899405137754
-0.08089181147911237,-0.13207829332426543,0.295088813846065,0.0626490613598686,-5.474101084047717e-05,-2.0628014917719515e-05,0.0002674200424304492,3.570062923864848e-05,0.005182137420115266,-0.004196910896392625
-0.10082266885123009,-0.0006691844081440697,0.042577938144341784,0.07237324176585846,0.13188711762132876,-2.0608096920105567e-05,0.029521459519366213,0.01689872655645806,-3.8803099830519476e-05,-2.8335423734537464e-05
-0.04106773537282474,-0.09807444729796234,0.2138514385708191,0.07287911869558812,-1.1227243144118713e-05,-1.2807668066499776e-05,0.00013612662968737527,8.383120367178184e-05,0.0582434937977761,-5.300906320244143e-05
-0.10412880199755906,-0.00013948822620450378,-0.0002528087662024551,0.05135324696154052,-0.00022063755005141347,-5.9187898199964966e-06,-3.265178238543121e-05,2.0561562971729142e-05,-7.121698515945215e-05,-0.00010314714274423499
-0.1662894151151777,0.04985494920056469,-0.16251816901872684,0.17017144822060423,-1.5567564247767323e-05,-5.225731295799421e-06,-0.002651269866925123,0.00010970391362407662,-0.06532119075968391,-0.014784768688096597
0.00601468863992779,0.19241760597542804,0.07671685849849438,8.584046712759603e-06,-3.2340353437616193e-06,1.3133712504649318e-05,8.321563545163014e-06,0.03506320417916676,5.665481487132442e-06,-2.4835126066331967e-06
0.005329533650821097,0.3765137359412883,0.15205790597494478,-1.5466866301967537e-05,6.329968591791143e-06,-1.4876965899590692e-05,8.412171817181134e-06,0.18772179492107335,2.4344983014275993e-05,-9.913542771228348e-07
0.026762985919028967,-0.03454784380958311,-0.06274646111970443,0.006563443264119563,0.032011463740827154,3.577989018874443e-05,0.07095451968997528,0.0287016177704969,-0.016479775368359526,-0.00030038704294783804
0.08176351582043317,-0.18681450634812613,0.42409966924190856,0.13273603601359418,-0.03982969072693573,0.10085282837247773,1.475132912748717e-05,0.00014420395056067913,0.004397431244251828,1.4599118646789427e-05
0.6881420268362747,-0.06773232084692866,-0.1363120865137193,-1.4126642918478151e-05,-0.05543693967707427,-0.18195973735356027,-1.6126344924060881e-06,8.57979177754335e-06,7.2886941061419684e-06,-0.00010687770100952532
-0.15640373625844362,-0.06738793103078242,0.12835134976660661,0.16864048843318272,-0.009105616282427932,1.6608926586645672e-05,6.869108413904001e-05,0.0001279870988950099,-0.0003961088206429461,0.021549506862541222
0.08660581879185175,-0.1384104094292435,0.14601223232015195,0.1528138777309709,-0.07960654035301928,0.049561160933416094,5.756558674133362e-05,0.001654448244668492,-0.01325482855349766,-0.08701391102601481
0.018398930245749942,0.3393237540326831,0.15073179513120769,-2.6461250606598322e-05,2.385676519545979e-05,-9.873992022852518e-05,4.692030303504253e-06,0.21579653415592595,-2.2373470314418164e-06,-1.5862566150143688e-05
-0.04639825149030152,0.11494608597204961,0.00020904867212837925,-0.0002895584125102345,-1.0223691879941816e-05,2.861149463230436e-05,-0.04750534860337816,0.16492367031798982,5.965379174126651e-06,-2.4301213813890563e-05
0.03404279164081628,0.48475406229221407,0.19762158637267752,-8.475206091094773e-06,-1.1140506147800836e-05,1.2048269057388845e-05,4.9781556814297495e-06,-0.00034037319292340977,-0.00010577306245823423,-5.765139461722681e-05
-0.03221127759190153,0.03372614496671335,-0.0860742352007907,0.1218353724772848,-1.2803339415312324e-05,0.12367962947041443,-0.00021072173280780885,-8.750202056616966e-06,1.6824578047502304e-05,0.0003414418238668076
-0.03659714783996467,-0.0001222498670226255,9.662356156564845e-05,-0.0007710657255292271,-3.4704108377280076e-05,5.017647520474095e-05,0.020007972055617662,4.6944897766120933e-07,-8.288985019068243e-06,-0.00037096383572857654
-0.039977299974086236,-0.0003239499760007309,0.02612135019228596,0.04514091589512613,8.744076275495512e-05,2.2880377748238974e-05,-1.3483190392581312e-05,0.0002446644314358792,-4.720271299512707e-05,-1.3659121044762114e-05
0.13128152581120447,0.28628311620810093,0.09796640090446067,2.2768665030075215e-05,0.13462492838430665,0.21392780062452713,7.6203797230728204e-06,-0.00024492794082729913,-0.025139740831150212,-0.012974071345186819
-0.00013355572972935172,0.0991529276645275,0.03734959826813951,-2.112544947065699e-05,-1.0875007557354661e-05,-5.140783716848648e-07,1.737673242669965e-06,0.2221148739289489,3.834165653253365e-06,1.052948978849656e-05
0.04398879757666195,0.756119673315309,0.3100514950176112,-1.5582006663830706e-05,-7.494322790006999e-07,-5.4317112100676235e-06,-1.6171289314476319e-06,0.02418289071076533,1.608206044865641e-05,6.246747750196959e-06
0.045775064144600475,0.10361852655650462,0.0392623955474431,-1.5861420620575224e-05,0.053778672687323247,-3.200377939945518e-05,4.34364556027074e-05,0.06798725194308054,-0.0011358537160637506,-0.0003708657864297721
-0.007446057535122615,-0.00035098641803434837,7.01040734112032e-05,0.0002607819579466422,1.3017424417517101e-05,1.636970790311363e-05,1.4405928902884015e-05,1.1143484655399856e-05,-5.678874597218939e-06,-7.483338299372046e-05
-0.0021545448778709946,0.04918777429975109,0.0029217740384478432,0.0023591189605395913,-5.602069446237503e-05,0.002704671405196704,-9.490674554508357e-05,0.10395442651477947,-0.0041451444692597325,-1.14584412420321e-06
-0.07866283068706155,0.00031407780241095664,-0.10291238319235593,0.0445511781848334,-3.720792115191148e-05,3.654020526830337e-05,0.08359014156360738,0.0003889791742859448,-0.08701569707488353,0.039339074527469105
-0.16655996097750256,0.0012280267286353269,-0.08973755211027744,0.24061553351412943,0.04578333440432695,0.00024476602408746764,-0.08703004321609045,7.285067298537059e-05,-5.9753689535293984e-05,-0.00022604811986227472
-0.060062609476512506,0.04137117893814533,-0.15656745789578225,0.3259285179722366,1.6178913037032874e-05,-8.095779281575404e-06,-0.046093127711664086,1.23124820258026e-05,0.0004574487920095296,0.03565392511481727
-0.005303919831103004,-0.00011568012014285728,-0.0037752543742751096,0.004740352647109265,-6.667953651709675e-07,-8.531356074896469e-05,-0.0004664312777983791,1.9838756960312545e-05,-5.6877256939268596e-06,-2.975542196260377e-06
0.04994502097297046,0.06724071153582359,-0.14409910018964298,0.33844300165865737,-6.923616371247878e-05,0.35942900396229044,-0.21417310221175193,0.02741460831554288,0.1053969155203764,0.08744588450585726
-0.06555156047929886,0.00035729881802183585,-0.05166025676267857,0.06910697927177194,9.516654462353403e-05,4.89167837110429e-06,0.00011937746626306577,1.5773065905995874e-05,3.180920862654511e-05,2.288243075559128e-05
-0.055092307778118174,4.175367696934534e-05,0.10702810840392926,0.0018960517529897445,-9.924063229412184e-05,-6.317422248602075e-06,0.04543401857652549,0.10987730592047126,0.034086136089690196,-0.060261487263862726
-0.19343314084761695,0.018202388264767083,-0.13875725720649768,-0.0670880735733514,4.258145474053067e-05,-4.1345283331135254e-06,0.33052319486401255,0.0001558716122415493,4.232294748753588e-05,-0.00010756558095748804
-0.04995246731334696,-0.05228973378934075,0.14900771597130108,0.06482971473408472,0.29783278782396727,6.447310557340339e-06,0.1373468568989069,3.3499807061870103e-06,0.0717001027480904,-0.0793328835650491
-0.001419049925053784,0.06351956200492394,0.00011918296931241631,-0.0009609635103013142,-3.831673413792893e-05,-2.6298804175478753e-06,-0.0003688833432506862,0.05207999667792766,-1.597513327230686e-05,-9.885087054398269e-05
0.06662738815824475,0.052120810944236554,0.00013413148229678173,-1.2187360537680044e-05,0.056362939506726155,0.12980262626839545,-1.340135761683724e-05,0.15337080659985222,0.04566907766509823,0.015896424705048862
0.17485766207582326,0.10790539620978122,-0.10999559963272049,0.07995007911640145,9.039880025791606e-05,0.03142686141800715,-0.00013222072989694622,0.1347920539111579,-0.04575786084818352,-0.0009491070286380001
0.14339952805915687,-0.0014323450971770839,-0.023985852465249327,-5.330831277023381e-06,-0.00013418291250945854,-0.04660723432830967,2.738513058173969e-05,1.1369189990272606e-06,4.6732599937157576e-05,2.2483992389997572e-05
0.36990222799799777,0.21162302328684066,0.07194537921783868,0.0020986530240694598,0.016586806186850832,-0.05110960742510158,-2.330785538129282e-05,-0.030640240305672233,-0.037945734233151306,-0.002901389176347646
0.011325590863152053,-0.003301022370576737,-0.05178216882354729,0.0130268818090418,0.04351666169849227,0.007768341616645875,-0.001350215838455462,0.0005364341495723854,-0.06657438044576262,-7.96455137693258e-05
-0.060166112196060745,0.021748469743157115,-0.08050622340401735,0.14257796540280213,-5.9940367145908086e-06,-1.914252335346044e-05,0.09313339073041615,-1.1564107037705715e-05,6.980387006109936e-05,2.0499968298921664e-05
